,MaxDelqEver_2.0,MaxDelqEver_3.0,MaxDelqEver_4.0,MaxDelqEver_5.0,MaxDelqEver_6.0,MaxDelqEver_7.0,MaxDelqEver_8.0,MaxDelq2PublicRecLast12M_0.0,MaxDelq2PublicRecLast12M_1.0,MaxDelq2PublicRecLast12M_2.0,MaxDelq2PublicRecLast12M_3.0,MaxDelq2PublicRecLast12M_4.0,MaxDelq2PublicRecLast12M_5.0,MaxDelq2PublicRecLast12M_6.0,MaxDelq2PublicRecLast12M_7.0,MaxDelq2PublicRecLast12M_9.0,ExternalRiskEstimate,MSinceOldestTradeOpen,MSinceMostRecentTradeOpen,AverageMInFile,NumSatisfactoryTrades,NumTrades60Ever2DerogPubRec,NumTrades90Ever2DerogPubRec,PercentTradesNeverDelq,MSinceMostRecentDelq,NumTotalTrades,NumTradesOpeninLast12M,PercentInstallTrades,MSinceMostRecentInqexcl7days,NumInqLast6M,NumInqLast6Mexcl7days,NetFractionRevolvingBurden,NetFractionInstallBurden,NumRevolvingTradesWBalance,NumInstallTradesWBalance,NumBank2NatlTradesWHighUtilization,PercentTradesWBalance
0,-0.0,0.0,-0.0,-0.0,-0.0,0.0,0.0,-0.0,0.0,-0.0,-0.0,-0.0,-0.0,-0.0,0.0,0.0,163.63817,-168.89798,-22.820454,29.677689,-137.1788,533.2207,-206.98534,-18.365843,564.9374,-747.78253,-29.301502,-128.89394,-192.57901,24.071209,-37.35751,4.6188207,-230.34946,-82.53672,-77.62904,-0.0,-672.85864
1,-0.0,-0.0,-0.0,-0.0,-0.0,0.0,0.0,-0.0,0.0,-0.0,-0.0,-319.7751,-0.0,51.160347,0.0,0.0,-72.89846,-63.841267,-13.744369,13.289976,-0.0,315.36093,-120.310814,-16.079756,-185.20833,-436.28232,-14.43204,-200.38393,-0.0,-24.10264,-45.094467,223.49675,-68.787735,-604.20026,208.73665,-0.0,-629.009
2,-0.0,-0.0,-0.0,-0.0,71.41083,0.0,136.39456,-0.0,-0.0,-0.0,-0.0,-0.0,-0.0,21.980053,123.13996,0.0,-3.5527349,-11.86388,-90.55723,-1.9323933,-44.095314,313.21124,50.71872,-8.155059,13.238435,-321.22318,1.3128816,66.70069,-0.0,-22.428223,48.822567,-0.0,-14.307147,-46.184975,-104.333015,-0.0,-133.1574
3,-138.13507,0.0,-0.0,-0.0,116.37152,0.0,0.0,-0.0,0.0,-0.0,-0.0,-0.0,-0.0,0.0,0.0,0.0,94.26538,-392.25815,-67.12824,-55.780407,1.7192856,177.98282,-116.96202,-28.834373,298.85843,-782.88306,-0.0,45.70296,-174.66292,-43.8007,24.171621,-146.17734,-46.69854,29.524355,-135.40016,-0.0,-387.30405
4,-0.0,-0.0,-0.0,-0.0,242.68925,0.0,136.66705,-0.0,0.0,-0.0,-0.0,-0.0,-0.0,-0.0,0.0,0.0,-65.14311,-221.41965,-25.665878,1.6255845,-41.126507,368.60272,-271.52423,8.998969,59.44645,-862.47296,18.525982,-5.76715,-0.0,-9.34067,-46.057617,39.906166,-151.23634,-76.18798,-272.69324,-0.0,-401.25528
5,-0.0,-0.0,-0.0,-0.0,27.617455,0.0,113.25201,0.0,-0.0,-0.0,-0.0,-0.0,-0.0,-34.263115,124.98744,0.0,31.037474,3.17526,-1.4761229,12.523355,-6.3574505,109.09242,99.3333,3.0147333,-1.7401978,-98.58834,-145.53113,-40.29129,-0.0,-19.67193,30.85843,25.527838,21.741526,-14.83836,-7.1254535,-0.0,26.419481
6,-0.0,-0.0,-0.0,-0.0,-0.0,0.0,0.0,0.0,-0.0,-0.0,-0.0,-0.0,-0.0,0.0,0.0,0.0,104.47876,-231.63951,-0.0,8.012019,-78.431816,215.87791,-248.20908,-5.8191633,300.55698,-860.8834,33.136063,3.5914838,-0.0,53.065987,-27.705658,8.267205,3.7575395,0.9618096,-54.667904,-176.0982,-7.606525
7,-0.0,-0.0,-0.0,-0.0,-0.0,0.0,0.0,0.0,-0.0,-0.0,-0.0,-0.0,-0.0,0.0,0.0,0.0,28.271046,83.89142,-22.084745,-8.641949,-8.325505,141.71342,65.45744,-2.265434,-29.250196,-158.17667,39.026894,-27.132923,-0.0,-27.245962,34.13216,31.27961,-71.04913,34.0209,3.5536864,-12.386892,33.684002
8,-0.0,-0.0,-0.0,-0.0,-0.0,0.0,0.0,-0.0,-0.0,-0.0,-0.0,-0.0,-0.0,-0.0,0.0,0.0,36.342327,-203.01114,-178.85814,32.74133,-60.004566,516.1817,-239.03032,175.26492,41.860718,-740.9744,25.994183,-69.021576,-0.0,0.0,-0.0,165.3622,3.1200166,-25.664682,0.0,-35.825783,-435.78705
9,-0.0,-0.0,-0.0,-0.0,16.754303,-0.0,95.75798,0.0,-0.0,-0.0,-0.0,-0.0,-0.0,-45.76246,118.69516,0.0,41.950497,-23.076372,2.5717702,-0.9373704,8.779347,36.238697,136.75902,-0.17451088,-4.4053397,-166.18088,42.055614,88.74087,-0.0,-23.756811,19.775938,-50.610477,-55.274868,16.446783,34.754173,-18.201273,-19.763931
10,-0.0,-0.0,-0.0,-0.0,152.79643,0.0,131.72725,-0.0,0.0,-0.0,-0.0,-0.0,-0.0,5.9621544,139.62827,0.0,23.82989,-148.86772,-17.026781,7.684459,1.9059081,563.37354,18.743355,-24.328608,45.418648,-849.6719,10.087147,-98.40214,-0.0,-0.0,-0.0,-158.6798,-53.93779,-0.0,-209.3272,-10.162912,-549.51196
11,-0.0,-0.0,-0.0,-0.0,12.838679,-0.0,92.40125,0.0,-0.0,-0.0,-0.0,-0.0,-0.0,-30.309326,111.74624,-0.0,68.75194,6.3328543,-23.06865,3.7074177,-52.345657,58.428017,141.20364,-0.14612816,-4.2971983,-136.81294,42.6226,58.974518,-0.0,-24.44413,24.462858,29.624155,20.703562,17.849548,19.650993,-18.646542,-9.931519
12,0.0,-0.0,-0.0,-0.0,102.45036,0.0,176.4353,-0.0,-0.0,-0.0,-0.0,-0.0,-0.0,42.48577,136.76753,0.0,33.541557,-128.24713,-46.950012,95.299675,-9.916565,479.70718,-293.99588,40.498253,19.626755,-427.121,0.0,79.28172,-0.0,-29.166952,64.73246,44.252228,-13.552452,10.411985,-293.36588,-69.03619,-45.91597
13,-0.0,-0.0,-0.0,-0.0,120.59209,0.0,148.26418,-0.0,-0.0,-0.0,-0.0,-0.0,-0.0,17.39247,119.042366,0.0,21.701262,-306.67236,-17.10447,-13.485619,-1.314231,489.8694,-239.38693,50.50725,33.85879,-814.88837,-0.31611118,25.723038,-0.0,18.917068,-54.62978,91.59841,-38.17285,-44.212543,-352.58386,-0.0,-309.63318
14,-0.0,-0.0,-0.0,-0.0,-0.0,0.0,0.0,-0.0,-0.0,-0.0,-0.0,-289.28125,-0.0,-5.1126328,0.0,0.0,-6.707472,-76.36299,-279.07794,-3.0569186,23.557735,587.5426,322.22614,-10.81278,-97.41825,-660.20776,-25.094631,0.6270157,-39.365276,-19.168715,77.785286,-23.161242,23.253317,-0.0,-149.55916,-0.0,-290.303
15,-0.0,-0.0,-0.0,-0.0,-0.0,0.0,0.0,-0.0,-0.0,-0.0,-0.0,-303.68246,-0.0,54.157505,0.0,0.0,-22.806297,-53.399784,-52.93825,-41.290264,-17.848637,592.5934,-273.71378,-3.293045,-61.00916,-327.31064,-67.454384,56.634186,-0.0,-15.702068,56.131012,-47.28382,15.770849,-0.0,-89.83984,-0.0,-34.96003
16,-0.0,-0.0,-0.0,-0.0,60.64135,0.0,104.19445,-0.0,-0.0,-0.0,-0.0,-0.0,-0.0,-17.920021,150.11845,-0.0,51.67432,-59.235363,-9.020221,-58.081486,-43.645847,52.46332,-26.200924,-1.9346687,3.076414,-151.41365,-0.0,58.008133,-6.6279793,-21.631512,25.299076,11.61389,-4.031183,-26.63107,18.51426,-67.20752,-66.599815
17,-273.66895,0.0,-0.0,-0.0,249.83458,0.0,0.0,-151.86607,0.0,-0.0,-0.0,-0.0,-0.0,60.91284,0.0,0.0,-0.30740258,-173.31056,-0.0,11.994739,-22.48522,210.75883,-168.00496,-6.760251,-119.288475,-506.37555,0.0,-117.86274,-89.40502,-0.6966431,26.796875,85.87815,-265.05508,59.479725,-211.74956,-105.568596,-383.9086
18,-0.0,0.0,-0.0,-0.0,-0.0,0.0,0.0,-0.0,-0.0,-0.0,-0.0,-0.0,-0.0,0.0,0.0,-0.0,66.98819,-35.754585,-2.066418,-7.707545,-9.517957,-13.80923,-52.355114,-7.181183,11.174527,-73.613556,48.181717,74.4353,-0.0,-23.222652,16.585081,39.420048,4.6947527,-0.0,18.683235,-0.0,-40.39092
19,-0.0,-0.0,-0.0,-166.54895,227.11378,0.0,0.0,-0.0,0.0,-0.0,-0.0,-0.0,-0.0,-0.0,0.0,0.0,-39.89531,-24.125576,-116.56744,-14.176357,-9.486206,449.202,-97.07897,36.647495,54.7258,-625.76483,-0.014383069,-378.11697,-13.358139,-0.0,-0.0,-183.6411,12.943924,-0.0,-117.7028,-0.0,-709.7218
20,-0.0,0.0,-0.0,-0.0,-0.0,0.0,0.0,-0.0,0.0,-0.0,-0.0,-0.0,-0.0,-0.0,0.0,-0.0,103.4554,155.73996,-2.4796758,-0.2643656,12.073899,196.04958,-299.9833,59.9411,125.41096,-376.51474,-310.01904,-4.4312997,-0.0,-9.503823,18.981646,113.999435,-57.22558,-189.86942,-45.347046,-0.0,-354.02625
21,-134.55753,-0.0,-0.0,-0.0,119.40582,0.0,0.0,-0.0,-0.0,-0.0,-0.0,-0.0,-0.0,-0.0,0.0,0.0,39.9568,-136.6766,-59.79335,20.81658,-30.264616,299.8688,-301.11966,86.38096,74.73026,-506.73596,-21.366434,-43.155777,-0.0,0.0,-0.0,201.73865,-45.75479,30.631355,0.0,-0.0,-128.97835
22,0.0,-0.0,-0.0,-0.0,94.00565,0.0,169.05719,-0.0,-0.0,-0.0,-0.0,-0.0,-0.0,50.706867,133.41797,0.0,118.01949,-31.319702,-110.1938,79.83282,-108.85122,540.3171,-217.47763,-1.8751341,19.619736,-359.54364,-41.20742,28.481377,0.0,-20.150337,68.37812,-20.950386,-19.277601,9.350733,-298.21555,-67.20738,-50.302845
23,-0.0,-0.0,-0.0,-0.0,208.09628,0.0,169.8136,-0.0,0.0,-0.0,-0.0,-0.0,-0.0,65.093155,202.92763,0.0,5.1408033,-145.26309,-58.67234,-68.685104,7.095148,478.46594,-229.37096,10.667187,48.116066,-845.7576,-10.087754,-48.509422,-0.0,3.173769,61.53126,12.1004715,-69.94331,-130.29587,-276.74237,-0.0,-753.36957
24,-0.0,0.0,-0.0,-0.0,-0.0,0.0,0.0,-0.0,0.0,-0.0,-0.0,-0.0,-0.0,0.0,0.0,-0.0,17.041046,-51.705647,-14.557695,-5.714295,-25.315533,322.42194,-621.82574,-20.468058,82.81265,-58.339417,-207.51456,-73.53407,0.0,85.8948,-101.97131,159.7549,-0.6043229,-0.0,0.0,6.720115,-309.74252
25,-0.0,0.0,-0.0,-0.0,81.562874,27.080952,0.0,-0.0,0.0,-0.0,-0.0,-0.0,-0.0,-0.0,0.0,-0.0,185.44139,-92.174706,-6.5104012,-1.647272,14.534899,226.28673,-286.06024,-24.177156,16.035378,-25.752964,-123.20114,-88.72611,0.0,37.38147,-38.647087,18.723782,-84.64882,-115.16524,-27.721054,-0.0,-243.01367
26,-0.0,0.0,-0.0,-0.0,69.99761,0.0,111.09925,-0.0,0.0,-0.0,-0.0,-0.0,-0.0,0.9367566,181.62021,-0.0,12.384947,-82.723175,-16.538267,-1.061528,1.467423,262.5566,-573.9354,19.290262,9.581056,-6.114205,-0.0,-70.67477,0.0,0.0,-0.0,175.26642,9.908309,-272.12946,203.56262,4.677472,-429.43256
27,-0.0,-0.0,-0.0,-0.0,20.24314,0.0,115.455475,-0.0,-0.0,-0.0,-0.0,-0.0,-0.0,-25.858559,135.01163,-0.0,-17.008469,-61.18688,-17.542788,12.420327,-38.877285,142.81815,-204.42126,77.84069,-3.0042088,-300.71875,-0.0,-2.5377684,0.0,30.095875,-29.555159,140.18184,-5.0762477,29.932058,-22.28443,-0.0,-210.95561
28,-0.0,-82.04611,-0.0,-0.0,124.64198,0.0,0.0,-0.0,0.0,-0.0,-0.0,-0.0,-0.0,0.0,0.0,0.0,83.636986,-236.9649,-48.322403,1.2130156,-18.802082,370.19183,-28.081245,-1.8422242,13.959622,-1133.7098,-28.833181,-132.85623,-0.0,21.478075,-0.0,148.12497,-81.514366,-0.0,-240.828,-0.0,-310.2049
29,-0.0,-0.0,-0.0,-0.0,-0.0,0.0,0.0,-140.89047,0.0,-0.0,-0.0,-0.0,-0.0,129.47112,0.0,-0.0,-36.230995,-5.736912,-142.64142,-61.39939,-64.33992,906.60315,-467.89706,14.838714,-36.25468,101.37636,-59.525475,28.398706,104.67088,-22.965729,-67.70802,189.6669,-63.30826,-959.31616,-383.01526,-0.0,-414.28723
30,-0.0,0.0,-0.0,-0.0,-0.0,0.0,0.0,-0.0,0.0,-0.0,-0.0,-342.36194,-0.0,64.71997,0.0,0.0,11.432032,-101.6018,-70.03163,-2.4877808,-22.8159,274.56586,-470.77264,-0.0,-150.64995,-213.35156,-19.323214,-10.93977,-59.91359,-12.084396,20.975048,207.82033,-178.34511,-254.45851,100.402466,-50.983974,-388.9332
31,-0.0,-0.0,-0.0,-0.0,212.56151,0.0,126.080215,-0.0,0.0,-0.0,-0.0,-0.0,-0.0,96.2779,152.83621,0.0,-12.939881,-16.105185,-8.195363,17.746162,-18.645134,639.4483,-520.19556,-14.251576,48.665173,-326.76855,34.30588,-25.929255,7.795716,-22.669863,-59.09662,-0.0,-104.98756,-205.91025,-417.04312,-58.29808,-362.66208
32,-0.0,-35.792137,-0.0,-0.0,207.6628,0.0,0.0,-0.0,0.0,-0.0,-0.0,-365.71988,-0.0,29.95272,0.0,0.0,28.332935,-179.15666,-54.23673,-26.569279,-31.098248,338.73383,-132.24557,59.53827,-177.60054,-664.6814,-78.93627,-292.5848,-9.463783,0.0,-0.0,195.14919,-30.26068,-60.755047,250.5043,-0.0,-598.03937
33,-0.0,0.0,-0.0,-0.0,145.63116,0.0,80.52248,-0.0,0.0,-0.0,-0.0,-0.0,-0.0,31.375036,176.20068,-0.0,33.102463,-164.55301,-5.948283,36.46243,-104.836975,272.71838,-458.0328,25.928839,32.868404,-85.59049,-291.07468,5.690972,-0.0,0.0,-0.0,213.178,-72.520515,-247.44092,-111.56185,-29.452251,-256.25415
34,-0.0,0.0,-0.0,-0.0,-0.0,0.0,0.0,-0.0,-0.0,-0.0,-0.0,-0.0,-0.0,0.0,0.0,-0.0,47.118324,-17.75433,-0.40170702,-39.09138,-1.7691306,-7.301934,-68.04597,-7.6043916,11.332244,-71.99512,-0.0,25.21337,-0.0,-25.784086,17.746317,81.15532,7.8238735,-35.97136,31.77599,-0.0,-26.875622
35,-0.0,-0.0,-0.0,-165.05049,265.8354,0.0,0.0,-0.0,0.0,-0.0,-0.0,-374.2586,-0.0,70.08387,0.0,0.0,-32.997135,-1.9068145,-67.92159,49.669155,-28.404902,211.16467,-320.37836,30.406181,-142.59381,-527.5764,0.0,-263.65332,-7.26883,3.484568,36.633396,196.09485,-34.017384,-0.0,258.66312,-240.75165,-487.11685
36,0.0,-139.59708,-0.0,-0.0,89.12561,0.0,0.0,0.0,-0.0,-0.0,-0.0,-0.0,-0.0,-0.0,0.0,0.0,126.221886,48.08194,-17.918222,26.813251,-74.296745,384.3198,-394.23688,0.8697708,210.84885,-956.80444,0.0,-55.155884,-0.0,56.74764,-47.94658,-48.4858,25.837778,12.43718,-334.21323,-57.01919,-21.69117
37,-0.0,0.0,-0.0,-0.0,212.92795,0.0,114.701385,-0.0,0.0,-0.0,-0.0,-0.0,-0.0,37.47857,168.68958,0.0,79.25902,-438.39395,-22.608397,-4.9242973,-58.620705,404.12912,-362.59445,18.839495,52.352097,-831.87,-29.392685,-308.87766,-0.0,-14.923921,-127.228,-103.167595,12.356825,57.512234,-122.14343,-60.077324,-337.55054
38,-208.31995,-0.0,-0.0,-0.0,180.88237,0.0,0.0,-0.0,0.0,-0.0,-0.0,-0.0,-0.0,-0.0,0.0,0.0,104.76263,-182.52824,-88.91686,11.787152,-32.400284,308.897,-102.20968,-20.0363,16.547695,-785.4813,-0.0,-201.58394,-94.72627,-25.016058,55.080296,191.80055,9.6189995,44.630474,0.0,-0.0,-702.1658
39,-0.0,-0.0,-0.0,-0.0,94.33209,226.57155,0.0,-0.0,-0.0,-0.0,-0.0,-0.0,-0.0,-0.0,0.0,0.0,8.769249,-17.806952,-53.91261,1.9760622,-0.0,567.9763,-165.50072,14.065359,28.105484,-209.40335,-39.14429,43.8371,0.0,-4.8601103,43.787243,-31.819536,-18.606277,-0.0,-244.93915,-28.404577,-325.66974
40,-0.0,-0.0,-0.0,-0.0,73.82997,0.0,124.17021,-0.0,-0.0,-0.0,-0.0,-0.0,-0.0,4.9474783,139.02,0.0,3.545348,-34.34378,-11.528032,-73.50311,-26.945837,136.72752,40.370396,19.672972,8.812705,-269.60526,-0.0,64.386314,-21.514315,-29.117002,32.78912,34.826393,-20.650871,-29.51892,0.0,-0.0,-210.75217
41,-0.0,0.0,0.0,-50.06482,38.376587,-0.0,0.0,0.0,-0.0,-0.0,-0.0,-0.0,-0.0,0.0,0.0,-0.0,164.22571,-40.07868,-2.154143,18.01492,3.9964979,-57.047356,-276.72418,35.814262,-12.4657755,-143.39638,-140.31276,96.62317,-0.0,0.0,-0.0,68.64572,-6.1253657,23.07941,-0.0,-34.504467,-10.147507
42,-0.0,-0.0,-63.797455,-0.0,191.88011,0.0,0.0,-0.0,-0.0,-0.0,-0.0,-284.03732,-0.0,74.16836,0.0,0.0,-30.54546,14.771238,-9.467744,23.5902,-111.202324,383.89252,-466.76898,0.19149846,-30.306164,-308.1423,0.0,51.4027,-0.0,-18.445671,36.801453,-50.46763,-47.69139,37.99787,-198.00337,-387.73993,4.1205196
43,-0.0,-0.0,-0.0,-0.0,-0.0,-0.0,0.0,0.0,-0.0,-0.0,-0.0,-0.0,-0.0,0.0,0.0,-0.0,63.9303,-9.151447,-41.79284,0.0,-12.415801,-70.39396,-49.08816,13.368475,-44.89393,-236.92407,53.631313,-37.424187,-0.0,39.26934,-11.329437,33.442677,40.013584,14.952531,39.654015,-24.50354,1.4030331
44,-0.0,-0.0,-0.0,-0.0,148.95142,0.0,169.94118,-0.0,0.0,-0.0,-0.0,-0.0,-0.0,10.9506,146.4784,0.0,262.9177,-368.47687,-31.440578,-14.7937765,-23.582277,528.6942,-214.21869,-23.426464,47.200226,-1209.5287,-36.75112,-50.323746,-66.99589,40.368507,-101.92295,209.49281,-46.169632,39.523926,-397.29547,-0.0,-391.81958
45,-0.0,-0.0,-0.0,-0.0,-0.0,0.0,0.0,-0.0,0.0,-0.0,-0.0,-0.0,-0.0,-0.0,0.0,0.0,-14.129141,35.241535,-35.974064,-18.84812,-33.73834,564.74414,-581.86194,-26.357168,166.73157,-399.0192,-56.529907,-21.765095,0.0,-69.3331,-120.69267,-51.837666,-176.69502,-147.79524,0.0,-147.51892,-392.26224
46,-0.0,-0.0,-0.0,-0.0,20.650446,-0.0,102.454285,0.0,-0.0,-0.0,-0.0,-0.0,-0.0,-31.913841,118.92556,-0.0,106.91702,-29.626959,-2.7412226,41.485813,-9.359798,35.795216,40.535984,0.5571205,-4.4979534,-273.3255,-0.0,28.28001,-0.0,-31.096224,24.008526,68.76516,19.6207,46.12232,20.158855,-0.0,54.073563
47,-0.0,0.0,0.0,-0.0,-0.0,0.0,0.0,-0.0,0.0,-0.0,-0.0,-232.93573,-0.0,6.6577563,0.0,-0.0,70.07369,0.99541956,-7.1327496,-34.905643,0.0,87.84695,-555.0115,-39.547066,-5.6110253,-81.64524,-131.33868,-16.86826,0.0,-13.2075615,-41.82562,91.277115,43.084236,-388.85413,-60.83485,-0.0,-467.1246
48,0.0,-204.41956,-0.0,-0.0,83.20469,0.0,0.0,-0.0,-29.560196,-0.0,-0.0,-0.0,-0.0,65.19578,0.0,0.0,47.941784,155.46474,-255.04295,-9.423174,4.357569,780.1907,-141.84288,-12.859138,-72.76285,-644.02344,-37.346035,36.565327,0.0,-5.6247787,65.85839,151.4503,-9.966568,-30.047096,-401.8707,-0.0,-555.9366
49,-0.0,0.0,-0.0,-0.0,184.08685,0.0,62.84888,-0.0,0.0,-0.0,-0.0,-0.0,-0.0,68.58632,117.48238,0.0,46.516792,-216.00317,-7.256325,9.21106,-27.912373,399.76584,67.36226,10.602078,48.92028,-685.6462,-163.08176,4.95698,-402.65192,-15.528522,20.371408,54.696182,-217.64462,-508.1156,-51.517975,-19.123535,-723.1128
50,-0.0,-0.0,-0.0,-0.0,37.159035,0.0,124.98833,0.0,-0.0,-0.0,-0.0,-0.0,-0.0,-46.92241,142.87715,0.0,4.7639165,4.398843,-5.9830813,3.9533083,-0.0,103.04747,218.1468,1.6128887,1.6923764,-128.99521,-254.57907,-39.515633,-88.200554,20.47328,-0.0,20.702026,23.249731,-57.991848,-3.4034011,-3.3740172,-17.846848
51,-273.7097,0.0,-0.0,-0.0,204.88605,0.0,0.0,-0.0,0.0,-0.0,-0.0,-0.0,-0.0,-0.0,0.0,0.0,17.64091,-372.77048,-7.4935403,0.4225574,-42.323826,430.01187,-263.80765,19.02513,253.53442,-759.8185,66.07039,-50.408756,-0.0,0.0,-0.0,-87.97752,-229.18079,55.6609,-290.45642,-30.84145,-43.759953
52,-0.0,-0.0,-0.0,-0.0,-0.0,0.0,0.0,-0.0,-0.0,-0.0,-0.0,-181.12648,-0.0,20.924147,0.0,-0.0,51.514477,-5.8738546,-9.364862,-47.77618,-42.77731,199.88454,-385.77304,12.242733,-57.887306,32.680195,0.751104,-15.455524,-0.0,0.0,-0.0,94.63512,54.54038,-225.46611,-77.21562,-0.0,-57.24265
53,-0.0,0.0,-0.0,-0.0,-0.0,0.0,0.0,-0.0,0.0,-0.0,-0.0,-425.01962,-0.0,90.83695,0.0,0.0,72.27517,-214.9431,-18.056007,9.823123,-83.522766,686.8769,-574.7415,-17.655117,-63.47979,-543.0337,57.14227,-210.5443,-0.0,27.127388,-62.289875,198.11823,-252.84196,204.26811,-115.353264,-50.595448,-134.98872
54,-0.0,-0.0,-0.0,-0.0,-0.0,0.0,0.0,-0.0,-0.0,-0.0,0.0,-302.38995,-0.0,83.771225,0.0,0.0,-27.273596,-29.381626,-6.6647344,26.879053,-106.712845,598.9813,-372.62527,-2.8909528,-85.20427,-67.94344,77.72203,75.3649,1.6232173,-8.931016,23.836409,-37.403305,-32.49658,-47.34316,-114.01669,-333.08212,-48.225746
55,-127.719185,-0.0,-0.0,-0.0,112.35466,0.0,0.0,-0.0,0.0,-0.0,-0.0,-0.0,-0.0,-0.0,0.0,0.0,-0.0,-191.8426,-131.84544,-0.0,-15.46713,206.89551,-199.75206,-14.809212,67.47506,-731.8078,-23.954924,-58.5351,-0.0,0.0,-0.0,148.65446,-49.1686,9.436638,-316.46915,-20.501427,-273.344
56,-0.0,-0.0,-0.0,-0.0,114.29849,0.0,162.46082,-0.0,-0.0,-0.0,-0.0,-0.0,-0.0,26.247793,147.33861,0.0,-34.273743,-126.73914,-98.66506,0.44779396,-39.252155,377.68948,-16.149984,-23.06322,20.406364,-676.35913,23.317774,-3.2497087,-0.0,-30.238407,63.00139,51.590992,-34.330715,-12.78193,0.0,-0.0,-251.42346
57,-0.0,0.0,-0.0,-0.0,54.812042,0.0,82.85243,-0.0,-0.0,-0.0,-0.0,-0.0,-0.0,-21.936127,135.13504,-0.0,0.63630044,-10.514598,1.7735772,-13.646212,-2.239504,6.065531,2.003442,0.04645214,1.7117332,-162.93073,-39.004627,62.79768,-0.0,-17.393263,13.974588,69.41949,14.814383,-0.0,25.536047,-83.99477,-49.800137
58,-0.0,0.0,-0.0,-0.0,-0.0,0.0,0.0,-0.0,0.0,-0.0,-0.0,-0.0,-0.0,0.0,0.0,-0.0,7.929431,-66.00047,-9.075628,1.0584415,-89.168816,344.91547,-767.40857,-40.260025,143.17197,147.38794,-57.850636,-22.731411,0.0,136.83173,-130.74849,173.24933,-38.32003,-107.38426,55.930603,-1.7231865,-370.34015
59,-0.0,-0.0,-0.0,-0.0,-0.0,-0.0,0.0,0.0,-0.0,-0.0,-0.0,-0.0,-0.0,0.0,0.0,0.0,22.55647,-5.0627246,-28.515045,-10.424867,-1.4055282,8.285049,-113.67001,-11.966206,-97.91743,-59.013752,52.348087,80.642166,-6.752747,38.91143,-21.312666,43.544342,34.262913,-16.426632,32.236244,-9.211431,-31.686459
60,-0.0,0.0,-0.0,-0.0,-0.0,0.0,0.0,-0.0,0.0,-0.0,-0.0,-0.0,-0.0,-0.0,0.0,0.0,1.8810236,-219.86397,-35.599205,-31.560083,-87.517715,339.3004,-162.67104,59.014595,123.795425,-357.37167,-38.406643,-115.900444,-127.96852,0.0,-0.0,192.0653,-170.95114,-72.688286,-157.20094,-0.0,-337.5631
61,-20.635006,-0.0,-0.0,-0.0,127.58457,0.0,0.0,0.0,-0.0,-0.0,-0.0,-267.79028,-0.0,24.80756,0.0,0.0,86.879395,-117.89955,-17.208479,-37.58532,-72.0655,266.47952,-379.0974,-9.856968,-107.12043,-480.56497,0.0,15.255028,-0.0,0.0,-0.0,72.54243,7.732458,22.959003,-107.497536,-73.698135,25.76476
62,-0.0,-0.0,-0.0,-0.0,-0.0,0.0,0.0,-0.0,0.0,-0.0,-0.0,-0.0,-0.0,-0.0,0.0,-0.0,20.764156,238.22571,-0.0,-9.681841,-116.70272,567.49255,-524.5863,-15.085874,15.9440975,-289.65298,46.117474,-23.975182,0.0,0.0,-0.0,-106.129395,-59.05734,-540.52734,116.8555,-0.0,-420.96774
63,-0.0,-0.0,-0.0,-0.0,96.20999,0.0,68.12371,-0.0,0.0,-0.0,-0.0,-0.0,-0.0,21.794977,144.70537,-0.0,28.247482,-78.16337,-19.941282,52.763844,-40.72308,211.99635,-376.94003,173.79672,19.396559,0.0,-0.0,-5.658246,15.716167,61.03153,-73.33682,-130.71771,-56.86345,-91.89188,51.467583,-76.79339,-85.119026
64,-0.0,-29.702358,-0.0,-0.0,134.21309,0.0,0.0,-0.0,0.0,-0.0,-0.0,-0.0,-0.0,0.0,0.0,0.0,45.540756,-399.64993,-8.891488,9.945109,-1.5854176,326.8727,-88.15782,14.920992,0.0,-1008.5514,1.2997415,-178.29198,-133.59053,46.228153,-133.65457,129.4552,-93.07387,46.28823,-222.68329,-52.723454,-297.54324
65,-0.0,-0.0,-180.17114,-0.0,225.09047,0.0,0.0,-0.0,0.0,-0.0,-0.0,-386.6645,-0.0,65.34064,0.0,0.0,-45.33513,54.24243,-7.7024293,11.653158,-7.7657986,356.80246,-248.73265,9.149236,-74.52657,-671.4369,3.175002,-128.07462,-0.0,-43.050106,-144.3412,146.24432,-0.0,76.20586,-134.78572,-29.242369,-502.5269
66,-0.0,0.0,-0.0,-0.0,-0.0,0.0,0.0,-0.0,0.0,-0.0,-0.0,-230.4242,-0.0,56.243473,0.0,-0.0,4.6713786,-58.594223,-1.5023301,-0.07652985,-69.32239,422.53256,-81.48205,-8.923405,-93.472824,-208.99414,24.790905,2.6063333,-54.15147,4.737407,-3.8296208,-13.323856,-64.15154,-184.68915,-37.51179,-17.82674,-150.03937
67,-0.0,0.0,-0.0,-0.0,-0.0,0.0,0.0,-0.0,-0.0,-0.0,-0.0,-0.0,-0.0,0.0,0.0,-0.0,26.151201,147.23706,7.6591363,1.6392462,-2.7809534,14.213149,32.144127,22.868652,39.114716,-85.136,-0.0,84.204155,-0.0,-11.841782,11.385942,-87.10983,-42.522243,36.10822,22.955471,-0.0,-60.825905
68,-0.0,0.0,-0.0,-0.0,-0.0,0.0,0.0,-0.0,0.0,-0.0,-0.0,-0.0,-0.0,-0.0,0.0,-0.0,37.93199,-112.1644,-6.0696135,12.835787,-56.715313,406.36734,-288.55853,-16.501379,46.315723,-356.3798,-136.14043,-105.24243,0.0,15.484234,-25.17478,177.19453,-61.607906,-61.695915,-161.06969,-0.0,-248.45813
69,-0.0,-0.0,-0.0,-0.0,25.994757,0.0,119.720856,0.0,-0.0,-0.0,-0.0,-0.0,-0.0,-39.72525,134.29831,0.0,70.906235,-24.335695,-13.041587,-83.108154,-18.485067,113.983795,146.65308,1.1346421,-2.1251013,-193.72214,-0.0,17.070282,-29.106735,-28.084152,32.99775,55.367413,-62.299225,-0.0,6.1024265,-11.520385,-99.92301
70,-0.0,0.0,0.0,-58.87364,7.863886,0.0,0.0,-0.0,-0.0,-0.0,-0.0,-0.0,-0.0,0.0,0.0,-0.0,182.38231,-133.99803,-30.029982,-3.464442,-10.827839,67.57536,-500.3858,44.686874,18.404737,-206.07254,-0.0,7.407297,-0.0,-36.07908,12.8992,92.37351,2.3063397,18.466135,-29.174442,-0.0,-72.31078
71,-0.0,-0.0,-0.0,-0.0,25.732353,0.0,107.524414,0.0,-0.0,-0.0,-0.0,-0.0,-0.0,-35.504314,116.562256,0.0,98.475914,66.75114,-3.8502007,24.500935,-1.371577,79.95139,173.20384,-0.23057297,-3.3794408,-252.73071,-0.0,17.156347,-0.0,-23.879375,29.007051,-26.05704,-24.233192,37.086746,26.522861,-10.718223,-1.7958728
72,-0.0,-0.0,-0.0,-0.0,-0.0,0.0,0.0,-0.0,0.0,-0.0,-0.0,-0.0,-0.0,-0.0,0.0,-0.0,-2.0466464,-3.4308822,-6.681976,-6.603987,-22.69928,45.28386,-177.12384,27.253708,26.808603,-80.6758,-0.0,9.44851,1.6026152,-0.9882312,5.634414,126.223076,26.225046,-145.25198,-20.214237,2.6770372,-232.3299
73,-0.0,0.0,-30.866474,-0.0,81.41443,0.0,0.0,-0.0,0.0,-0.0,-0.0,-250.95294,-0.0,2.643405,0.0,-0.0,-0.0,-199.25853,-4.0697517,-6.4961457,18.63297,132.54713,-289.6345,-13.806549,-35.17613,-112.75188,-578.2032,-155.63214,-13.620315,-15.316821,-334.95886,7.9674025,-61.62274,-64.553215,298.63528,4.7116933,-343.12518
74,-244.67612,0.0,-0.0,-0.0,104.61994,0.0,0.0,-0.0,0.0,-0.0,-0.0,-0.0,-0.0,0.0,0.0,-0.0,51.855804,-129.53731,1.1974738,0.0,-9.20438,46.213806,-113.55,-21.830456,199.70729,-132.89397,-239.98856,-194.54123,-0.0,91.87795,-120.45165,-283.64917,-85.295975,-62.65596,58.915974,-0.0,-377.02948
75,-0.0,-81.840515,-0.0,-0.0,234.37207,0.0,0.0,-0.0,108.28183,-0.0,-0.0,-0.0,-0.0,77.47242,0.0,0.0,-95.474014,-112.5936,-33.073803,3.7183506,-10.06451,316.86276,-228.73965,-13.309718,-191.14842,-454.73264,0.0,-122.08081,0.0,-18.676765,-52.521896,247.64362,45.088444,-505.33823,0.0,-78.65914,-497.98575
76,-51.821472,-0.0,-0.0,-0.0,181.7403,0.0,0.0,-52.746536,-0.0,-0.0,-0.0,-0.0,-0.0,74.14803,0.0,0.0,-2.9299488,73.51878,-16.25216,42.140324,-48.804623,263.5471,-333.32733,58.9919,-108.23508,-246.04591,0.0,31.266623,-0.0,-21.503992,55.016365,161.60767,-47.946648,31.010899,-301.96704,-0.0,15.794591
77,-0.0,-0.0,-0.0,-0.0,101.21196,0.0,136.25894,-0.0,-0.0,-0.0,-0.0,-0.0,-0.0,11.158491,142.51964,0.0,44.519196,-55.917187,-12.531489,17.864466,-12.238933,412.67374,-43.581337,-3.6690314,17.85961,-323.20157,0.0,-4.9686704,-1.6395916,-21.391674,48.49955,-59.796307,-0.10563659,23.388533,-135.4956,-38.72745,-14.492497
78,-0.0,0.0,-0.0,-0.0,211.07277,0.0,101.65086,-0.0,-0.0,-0.0,-0.0,-0.0,-0.0,60.717476,187.52315,0.0,36.135387,-115.78397,-17.679426,-3.381084,-42.395237,361.4847,-286.74246,-13.920531,44.861935,-288.0574,19.740164,14.48187,-0.0,-18.491566,27.59982,-72.72291,-58.859333,-146.41881,0.0,-111.21801,-348.9132
79,-0.0,-0.0,-0.0,-148.40764,206.36052,0.0,0.0,-0.0,0.0,-0.0,-188.73407,-0.0,-0.0,47.439583,0.0,0.0,-6.905022,-209.64568,-12.830456,-29.79113,-44.15215,437.79083,-280.8046,85.71941,-189.26332,-530.3694,-8.542942,-165.86203,-0.0,-26.500475,-128.05061,-52.698566,104.99944,71.06983,-126.60071,-33.455536,-277.4537
80,-0.0,-0.0,-0.0,-0.0,47.702385,0.0,90.63756,-0.0,-0.0,-0.0,-0.0,-0.0,-0.0,-13.583299,123.93808,-0.0,40.159138,6.7315407,-2.2032955,-19.192225,1.9189888,0.4889279,10.898975,-0.7257714,0.13381758,-83.057396,-0.0,35.11821,-0.0,0.0,-0.0,87.89,1.6128502,-30.303123,4.3869624,-0.0,-29.16491
81,-0.0,-0.0,-0.0,-0.0,-0.0,0.0,0.0,-0.0,-0.0,-0.0,-0.0,-0.0,-0.0,-0.0,0.0,0.0,212.09186,-502.1133,-100.8017,-11.042691,-63.488663,498.21692,-190.4639,-23.12028,52.697365,-963.7013,-0.0,-222.99416,-0.0,-32.88658,67.01313,168.9955,-23.485756,43.45478,0.0,-53.968132,-251.84418
82,-0.0,0.0,-0.0,-0.0,-0.0,0.0,0.0,-0.0,0.0,-0.0,-0.0,-298.0618,-0.0,13.565109,0.0,-0.0,12.260575,51.58678,-20.562368,5.247618,-41.758476,479.43927,-617.54,-36.93207,-28.690762,71.873924,-27.365974,9.083013,0.0,-19.40199,31.13428,115.734566,30.241919,-172.48448,0.0,-21.912401,-154.14772
83,-0.0,0.0,-0.0,-0.0,63.23556,0.0,74.45123,-0.0,0.0,-0.0,-0.0,-0.0,-0.0,-6.6860237,148.0914,-0.0,27.583487,-83.8861,-5.967566,-34.358265,-23.970644,116.93701,-183.15968,-0.0,9.491625,-195.28969,-162.03249,-0.42681,0.0,15.516132,-16.439178,70.66356,-17.052183,-87.18457,-32.05153,-12.461211,-58.85727
84,-0.0,-0.0,-0.0,-0.0,-0.0,0.0,0.0,0.0,-0.0,-0.0,-0.0,-0.0,-0.0,0.0,0.0,0.0,33.466393,-24.009317,-25.99623,0.0,-2.264918,95.837585,-129.44672,-14.098149,-45.170277,49.89311,42.557392,52.41582,0.0,0.0,-0.0,18.2475,-39.448658,30.505274,4.5848703,-0.0,-10.737958
85,-126.52293,-0.0,-0.0,-0.0,112.76728,0.0,0.0,-0.0,0.0,-0.0,-0.0,-0.0,-0.0,-0.0,0.0,0.0,209.62422,-148.2221,-49.628113,49.781498,-7.7531424,235.43098,-99.39968,-18.97021,584.3726,-1119.1927,-0.0,-54.716625,-0.0,0.0,-0.0,-75.054726,-38.54507,30.798946,-404.13403,-0.0,-603.7209
86,-0.0,0.0,-0.0,-0.0,-0.0,0.0,0.0,-0.0,0.0,-0.0,-0.0,-0.0,-0.0,-0.0,0.0,0.0,-9.455415,-323.6422,-93.1839,2.4737194,-20.182966,763.59357,-490.75735,-14.1679945,61.49794,-452.7259,-64.85601,-42.148266,0.0,0.0,-0.0,-156.47183,-18.990906,-176.57802,-109.24486,-0.0,-390.96994
87,-0.0,-0.0,-0.0,-0.0,8.708522,0.0,112.57595,-0.0,0.0,-0.0,-0.0,-0.0,-0.0,-34.258205,121.51399,-0.0,163.51828,-59.08997,-11.94881,4.662635,-5.6458716,183.25897,-76.13268,-18.042952,-0.7963578,-244.82184,-72.83574,-15.7085705,0.0,0.0,-0.0,117.74396,-31.217405,34.13871,-22.382132,22.84859,-276.26083
88,-203.80948,-0.0,-0.0,-0.0,173.89778,0.0,0.0,-110.73135,0.0,-0.0,-0.0,-0.0,-0.0,82.57211,0.0,0.0,-16.48099,-71.68846,-28.321543,14.84077,-6.2042885,447.89914,-227.82346,-17.451717,-135.5199,-320.2667,0.0,26.691444,0.0,-14.60898,-56.921795,-0.0,131.1597,-755.6407,-210.01567,-50.527946,-293.43463
89,-0.0,-0.0,-0.0,-0.0,-1.2892289,0.0,131.08585,-0.0,-0.0,-0.0,-0.0,-0.0,-0.0,-28.03914,142.35371,-0.0,15.155192,-11.959673,-65.56302,-3.3096864,-9.73099,228.15868,-215.37604,-21.732998,-3.100291,-227.03697,66.7877,-11.87692,0.0,0.0,-0.0,107.347694,16.060972,-125.75336,-51.61769,-0.0,-193.36787
90,-0.0,-0.0,-0.0,-157.79953,219.22745,0.0,0.0,-0.0,0.0,-0.0,-216.06786,-0.0,-0.0,53.89411,0.0,0.0,-26.616451,-143.1075,-0.0,17.075937,-15.012744,281.01364,-224.75648,-20.891779,-129.01054,-571.8565,-11.510761,-302.30756,-14.137673,-17.172817,-43.729694,132.91875,-282.18866,-71.533585,235.48161,-0.0,-601.71716
91,-0.0,-0.0,-0.0,-0.0,-0.0,0.0,0.0,-0.0,-0.0,-0.0,0.0,-303.7293,-0.0,76.1791,0.0,0.0,5.6559663,36.525738,-8.285596,13.997812,-54.387413,534.1743,-457.6003,0.18776943,-130.48141,-186.49022,114.44949,-55.303932,-0.0,0.0,-0.0,123.270836,-68.9221,-44.22472,-228.50807,-0.0,5.487313
92,-0.0,0.0,-0.0,-0.0,227.62593,0.0,101.816376,-0.0,0.0,-0.0,-0.0,-0.0,-0.0,69.47791,137.53531,0.0,-6.2663817,-528.32007,-10.482315,-21.50082,-24.271288,427.7775,-59.91052,-25.611937,45.585697,-655.9965,-0.0,-635.23035,-0.0,-0.0,-0.0,56.668545,-316.3459,-0.0,-195.73543,-0.0,-599.68005
93,-0.0,0.0,-0.0,-147.98793,214.7914,0.0,0.0,-0.0,0.0,-0.0,-0.0,-293.51038,-0.0,52.263836,0.0,0.0,-21.520966,-110.09227,-10.275176,9.08966,0.5152058,237.36539,-192.91568,-19.660454,-51.261646,-551.93976,0.0,-316.6251,-18.905834,-17.829437,-33.74293,163.81131,-399.9309,-0.0,-94.34321,-24.852106,-511.96808
94,-0.0,-0.0,-0.0,-0.0,220.07965,0.0,118.7444,-0.0,0.0,-0.0,-0.0,-0.0,-0.0,-0.0,0.0,0.0,-68.74598,-100.820946,-6.234565,-40.433678,-19.807455,364.9295,-13.819618,-13.9033575,53.84005,-813.67804,26.557508,-18.92686,-0.0,17.846098,49.1166,-87.68255,-150.73311,-58.363567,-312.0478,-16.440487,-399.1521
95,-0.0,-0.0,-0.0,-138.60764,184.87308,0.0,0.0,-0.0,-0.0,-0.0,-0.0,-0.0,-0.0,-0.0,0.0,0.0,46.922943,-8.950069,-38.234356,12.698862,-135.93343,187.80228,-771.8998,-27.832804,206.09831,-218.20403,24.956884,-19.769468,-0.0,-23.55872,24.697552,178.08784,-100.49363,-161.20515,0.0,-157.23338,-32.003464
96,-0.0,0.0,-0.0,-0.0,-0.0,0.0,0.0,-0.0,0.0,-0.0,-0.0,-0.0,-0.0,-0.0,0.0,-0.0,75.41286,-39.992542,-0.0,-4.0962877,-22.768326,249.27896,-505.03043,-22.611929,111.755615,-49.700096,-96.66009,-0.0,71.90575,0.0,-0.0,116.30882,-21.987082,-687.17444,-27.15599,3.8027472,-546.54
97,-0.0,0.0,-0.0,-0.0,-0.0,0.0,0.0,-0.0,0.0,-0.0,-0.0,-0.0,-0.0,-0.0,0.0,-0.0,-4.693736,-43.91893,-16.234985,3.0005765,47.469696,268.16617,-331.50598,33.28849,164.05336,-285.5551,-113.276146,-24.506653,-0.0,-22.27675,14.04736,126.67557,-49.52179,-306.4878,-52.19291,-18.231007,-323.44104
98,-131.02783,-0.0,-0.0,-0.0,136.44951,0.0,0.0,-75.01817,0.0,-0.0,-0.0,-0.0,-0.0,14.405201,0.0,0.0,38.69949,-400.14185,-183.85449,2.514417,-0.21641481,337.74103,-52.079117,-24.568192,-38.046803,-787.21216,2.3214707,-200.38832,-0.0,-28.21277,51.473354,166.47263,-64.48541,22.923887,-291.9823,-0.0,-510.38382
99,0.0,-0.0,-80.514175,-0.0,117.56348,0.0,0.0,0.0,-0.0,-0.0,-0.0,-301.79956,-0.0,42.012283,0.0,0.0,17.494787,150.06119,-154.85306,-26.827549,-19.764402,406.6651,-386.76813,18.167654,-26.899391,-507.12897,-47.315796,7.1622367,-0.0,88.0068,-124.49794,140.58684,-4.043,11.311653,-380.40204,-0.0,31.3742
100,-0.0,0.0,0.0,-113.97913,-23.94588,-0.0,0.0,-0.0,0.0,-0.0,-0.0,-209.47935,-0.0,-43.27458,0.0,-0.0,84.21443,20.216215,-48.21546,9.969028,76.346924,98.70196,-683.856,39.43986,-18.603119,-270.7992,-0.0,-13.1611395,0.0,42.321865,-64.41121,76.50205,-36.454575,34.68953,-33.270367,0.0,-525.1313
101,-143.95415,-0.0,-0.0,-0.0,108.1031,0.0,0.0,-61.345806,0.0,-0.0,-0.0,-0.0,-0.0,-3.7534046,0.0,0.0,-0.0,-227.03714,-246.0923,-22.389038,16.197817,-0.0,-28.886463,-15.2685795,-97.22265,-820.8103,8.421923,-182.48923,-34.65721,0.0,-0.0,-41.647247,-34.03452,78.22873,-288.03146,-3.0356753,-91.95888
102,-0.0,-0.0,-0.0,-0.0,-0.0,0.0,0.0,0.0,-0.0,-0.0,-0.0,-0.0,-0.0,0.0,0.0,0.0,63.650463,-14.290235,-4.1540146,-17.53359,-0.0,16.068415,11.962994,1.0044179,-40.16596,-113.93951,-140.59044,18.960804,-0.0,0.0,-0.0,77.23364,29.303265,-0.0,0.7015712,-9.398366,4.782809
103,-0.0,0.0,-0.0,-157.46997,231.18509,0.0,0.0,-0.0,0.0,-0.0,-0.0,-324.01715,-0.0,76.570885,0.0,0.0,-36.088486,-181.44423,-11.659854,-2.9714313,8.607886,391.9815,-430.4692,38.43026,-165.15338,-201.04256,82.624435,-32.297096,-0.0,-0.0,-0.0,113.80848,-211.01424,-292.93515,-112.09128,-114.33618,-263.5851
104,-0.0,-0.0,-0.0,-0.0,25.878334,-0.0,122.92729,0.0,-0.0,-0.0,-0.0,-0.0,-0.0,-45.886913,138.40234,0.0,86.580055,-39.66412,-0.0,-2.7068439,-16.294199,9.111987,68.12876,4.6530466,-4.6049685,-219.83023,-0.0,-69.04744,-0.0,34.812576,-26.347864,-69.584206,-81.90944,38.27997,21.416466,-0.0,28.135735
105,-0.0,-0.0,-0.0,-0.0,145.84436,0.0,193.77783,-0.0,-0.0,-0.0,-0.0,-0.0,-0.0,42.858654,176.69672,0.0,102.68411,-310.69565,-110.817604,15.555663,-49.08955,587.7077,-105.74454,-10.515202,30.249046,-768.02496,-15.1651325,28.306446,-0.0,-28.029303,78.07324,47.13083,-46.870216,26.178368,-323.09787,-60.90866,-83.654434
106,-0.0,-0.0,-0.0,-0.0,15.316332,0.0,111.86075,0.0,-0.0,-0.0,-0.0,-0.0,-0.0,-43.38472,131.65742,0.0,34.608566,17.78353,-22.814085,1.0110435,-12.022499,80.96279,90.25289,-1.6940955,-4.426434,-165.56749,44.265743,4.725819,-0.0,0.0,-0.0,16.379194,-34.192333,-0.0,27.482214,-24.570572,-47.693897
107,-0.0,-0.0,-0.0,-0.0,3.6483612,0.0,147.428,-0.0,0.0,-0.0,-0.0,-0.0,-0.0,-33.431942,158.48717,0.0,-0.0,-81.70048,-91.28802,-2.7754464,0.27527255,278.30695,-200.27779,-25.659203,-0.399734,-180.19612,70.84702,4.1142774,29.166174,-30.504023,40.055523,99.841965,-2.380881,-170.07999,-44.332584,0.0,-412.7789
108,-0.0,-0.0,-0.0,-0.0,-0.0,0.0,0.0,-0.0,-0.0,-0.0,-0.0,-0.0,-0.0,0.0,0.0,0.0,0.4464698,15.558659,-0.0,12.953512,-15.734666,115.008675,174.16568,-0.46360922,63.763588,-79.58117,-0.0,30.555895,-6.7652125,-8.730391,31.228489,-85.82962,1.0949138,-104.21198,0.0,-16.115677,-37.96287
109,-0.0,-0.0,-0.0,-0.0,-0.0,0.0,0.0,-0.0,0.0,-0.0,-0.0,-381.33633,-0.0,105.87485,0.0,-0.0,-2.9946926,152.98116,-55.49973,-5.891162,-12.099874,847.6925,-449.07565,71.65076,-115.2987,-128.06389,0.0,4.6897326,0.0,-3.035927,44.174793,-84.00871,-59.9415,-394.01065,-103.39653,-40.062824,-268.21445
110,-0.0,0.0,-0.0,-0.0,-0.0,0.0,0.0,-0.0,0.0,-0.0,-0.0,-393.0396,-0.0,76.46244,0.0,0.0,10.708784,-218.90347,-7.6817627,-6.5671515,-14.576285,638.8756,-368.335,23.385326,-59.826134,21.803885,14.719757,-117.60946,-58.290096,-28.604586,26.821768,22.044035,-193.63295,-296.79266,-160.09949,-0.0,-470.53598
111,-0.0,-0.0,-0.0,-0.0,20.260403,-0.0,112.226135,0.0,-0.0,-0.0,-0.0,-0.0,-0.0,-39.879627,129.50143,-0.0,68.60374,-6.2053785,-17.532225,-10.173411,5.347553,31.613337,76.156624,-1.4610319,-4.570617,-281.26114,50.484837,-51.620274,-0.0,-34.41093,23.979559,56.626534,30.739506,-18.208843,31.097332,-20.375402,-36.364693
112,-0.0,0.0,-0.0,-0.0,213.75415,0.0,144.97618,-0.0,0.0,-0.0,-0.0,-0.0,-0.0,64.10471,194.4371,0.0,42.839077,-264.8899,-23.630009,-45.106976,-18.32347,505.10486,-328.29547,43.740974,45.602577,-534.72107,-81.3916,-307.407,-0.0,0.0,-0.0,197.50156,-187.30385,-0.0,0.0,-99.564354,-439.39865
113,-0.0,-0.0,-120.43236,-0.0,169.84073,0.0,0.0,-0.0,-0.0,-0.0,-0.0,-0.0,-0.0,-0.0,0.0,0.0,3.2936566,5.5118303,-30.233353,-9.181438,-16.527645,254.06813,-441.51758,49.137054,227.4397,-766.3802,33.527164,7.299357,-0.0,0.0,-0.0,47.175262,-125.38994,51.44392,-275.05386,-0.0,-39.432823
114,-0.0,-0.0,-0.0,-0.0,14.526958,0.0,109.900894,-0.0,-0.0,-0.0,-0.0,-0.0,-0.0,-24.485905,117.22479,-0.0,63.900166,12.0549555,-74.218765,-3.2732565,-4.5694237,159.47656,54.643402,10.034193,-3.816229,-242.1967,57.585865,0.0,-1.1113133,0.0,-0.0,33.133526,-31.2717,-86.667816,-12.264085,-9.980986,-102.904945
115,-0.0,-0.0,-0.0,-0.0,-0.0,0.0,0.0,-0.0,0.0,-0.0,-0.0,-438.22168,-0.0,106.06933,0.0,-0.0,34.79122,-65.428665,-59.828747,20.326612,-13.098498,620.1414,-637.9345,-19.90495,-114.408134,608.98865,58.497276,-193.08046,0.0,9.964362,-41.290745,53.56581,-243.56168,72.37847,-280.62375,-0.0,-764.09485
116,-0.0,36.40369,-0.0,-0.0,5.7423067,0.0,0.0,-0.0,0.0,-0.0,-0.0,-0.0,-0.0,0.0,0.0,-0.0,-0.0,-7.891973,-3.2125468,15.809389,-0.0,148.1704,-224.21893,-20.112278,46.992638,-304.52634,-328.368,-34.30938,-0.0,24.277164,-20.976068,100.21685,27.404844,-46.187733,-22.666079,1.8153389,-207.39984
117,-0.0,-0.0,0.0,-0.0,0.0,0.0,0.0,-0.0,0.0,-0.0,-0.0,-0.0,-0.0,0.0,0.0,-0.0,25.141268,-57.59087,-30.24862,1.5095552,4.016661,292.5481,-473.96426,-20.635788,-50.02727,-260.26962,-0.0,0.3628794,0.0,0.0,-0.0,44.545185,28.820845,-49.355564,-58.815746,9.098515,-81.53788
118,-0.0,0.0,-0.0,-0.0,-0.0,0.0,0.0,-0.0,0.0,-0.0,-0.0,-0.0,-0.0,-0.0,0.0,-0.0,71.31356,-64.8212,-2.3375971,-26.191502,14.071968,125.09365,-325.65744,-14.886406,56.649067,-204.36594,-71.80649,6.787219,0.0,98.1569,-79.09367,-3.7496364,-15.35911,-55.372528,-31.119534,-0.0,-30.72564
119,-0.0,0.0,-0.0,-0.0,-0.0,0.0,0.0,-0.0,0.0,-0.0,-0.0,-266.11444,-0.0,-4.2143497,0.0,-0.0,92.20426,8.338063,-14.88247,8.105044,-17.401999,335.5377,-680.34717,6.3831077,-40.72195,0.0,-67.332886,-11.234124,0.0,24.031668,-18.423437,142.83876,19.601873,-244.3394,0.0,0.0,-214.1877
120,-0.0,-0.0,-0.0,-0.0,20.978052,0.0,96.639725,0.0,-0.0,-0.0,-0.0,-0.0,-0.0,-28.74136,110.405914,0.0,12.015504,44.55855,-19.274727,34.579132,-36.719936,148.02905,192.31682,2.4225585,-1.8089062,-141.72554,28.70711,-6.5001388,2.2632957,-16.905212,30.90457,38.419468,-29.493319,30.288937,15.646082,-45.850555,23.536694
121,-0.0,-0.0,-0.0,-0.0,39.103992,0.0,101.03442,-0.0,-0.0,-0.0,-0.0,-0.0,-0.0,-8.09285,136.14532,-0.0,8.450258,20.563696,-4.2056065,11.198734,10.054127,102.67753,-111.864365,-4.407042,2.5069764,-40.458855,-110.93375,8.856598,0.0,-16.99484,22.2798,88.00366,-1.8913476,-81.592705,34.215405,-0.0,-89.68874
122,-0.0,0.0,-0.0,-0.0,-0.0,0.0,0.0,-0.0,0.0,-0.0,-0.0,-354.86298,-0.0,81.13911,0.0,0.0,10.691484,-128.16145,-18.409168,2.518296,-135.40985,681.45435,-324.62903,-4.4968944,-77.54587,-218.62367,49.830963,-37.56272,-0.0,-15.607922,37.85617,-180.0419,-191.74739,-129.90742,-86.234146,-0.0,-242.24307
123,-0.0,0.0,-0.0,-0.0,-0.0,0.0,0.0,-0.0,0.0,-0.0,-0.0,-0.0,-0.0,-0.0,0.0,0.0,-33.892555,-353.21323,-9.141574,22.424322,-27.898611,323.07544,-194.37625,100.03988,51.78694,-655.4873,8.253443,-357.60214,-0.0,-45.85927,-62.4814,53.509537,-266.82086,114.588684,-189.1264,-44.385666,-510.875
124,-0.0,-0.0,-0.0,-0.0,-0.0,0.0,0.0,-0.0,0.0,-0.0,-0.0,-426.8151,-0.0,105.97966,0.0,-0.0,13.527018,-160.75853,-16.381798,-9.616561,-20.272478,742.02704,-488.4863,-17.817776,-163.62822,222.53056,90.16323,-83.90096,17.296291,-157.66267,-377.43976,174.3745,-113.17268,-312.091,103.57795,-158.26587,-715.6536
125,-0.0,-0.0,-0.0,-133.11678,194.92047,0.0,0.0,-0.0,-0.0,-0.0,0.0,-325.677,-0.0,74.048386,0.0,0.0,-69.16283,-36.938656,-14.055071,-18.841599,34.089596,533.1006,-447.10474,-3.6320908,-79.533005,-506.7496,0.0,49.129147,-0.0,-17.561995,43.68885,-114.0035,-32.447113,50.814564,-298.64304,-0.0,5.7193246
126,-0.0,-0.0,-83.48453,-0.0,168.5014,0.0,0.0,-0.0,-0.0,-0.0,-0.0,-333.1697,-0.0,66.428,0.0,0.0,-13.813594,307.85342,-35.709476,18.380816,-59.220768,281.65024,-398.7978,2.0400796,-88.433105,-17.983192,56.032326,-9.950616,0.0,42.644638,-79.141495,39.49533,-11.927602,-152.25504,0.0,-0.0,-101.7479
127,-0.0,0.0,-0.0,-0.0,-0.0,0.0,0.0,-0.0,-0.0,-0.0,-0.0,-0.0,-0.0,-0.0,0.0,-0.0,72.2059,153.72224,-0.0,102.033424,-107.55325,28.100163,-374.48682,51.52611,7.9072556,226.37459,-520.2052,-4.1831064,-0.0,81.981544,-30.800648,80.8512,-58.61785,-217.67049,-27.431189,-71.384,3.4155378
128,-0.0,-0.0,-0.0,-0.0,-0.0,0.0,0.0,-0.0,0.0,-0.0,-0.0,-399.7823,-0.0,97.1575,0.0,0.0,-20.660547,5.409251,-68.91587,4.2151356,-18.049242,863.59467,-633.0996,-8.9911995,-203.96364,-259.263,-72.79555,-45.149467,9.786797,-5.822809,-51.18835,-136.93187,49.08413,-66.43188,-260.04166,-54.26084,-492.1702
129,-0.0,-0.0,-0.0,-0.0,49.59725,0.0,96.77463,-0.0,-0.0,-0.0,-0.0,-0.0,-0.0,-18.861319,123.576836,-0.0,21.14606,45.384068,1.3708172,-32.895123,-5.3778486,30.15331,107.84434,-0.83355004,0.24061093,-129.29584,-0.0,-15.603697,-0.0,34.18137,-0.0,10.257595,4.49348,-0.0,20.6618,-0.0,-11.235878
130,-152.21625,-0.0,-0.0,-0.0,134.32507,0.0,0.0,-0.0,0.0,-0.0,-0.0,-0.0,-432.1138,1.0580225,0.0,0.0,132.3633,-89.641525,-118.93729,-29.723415,-54.388878,-436.97278,196.81755,-14.078267,513.808,-745.62476,-17.76858,-58.17958,-0.0,35.467476,-44.875114,155.78932,-39.39818,-0.0,-270.71844,-56.483944,-119.82759
131,-0.0,-0.0,-0.0,-0.0,55.686817,0.0,86.486496,-0.0,-0.0,-0.0,-0.0,-0.0,-0.0,-10.543372,118.461044,-0.0,7.41052,40.176025,0.04522116,18.196272,7.2313704,84.846214,66.47744,-0.0,2.9142528,22.75744,-32.00743,5.323122,0.0,-7.6045837,23.687378,6.058138,-1.0628499,-56.53977,0.0,-0.0,-0.0
132,-287.24924,0.0,-0.0,-0.0,238.15836,0.0,0.0,-157.56705,0.0,-0.0,-0.0,-0.0,-0.0,65.2446,0.0,0.0,-44.76394,-326.29218,-50.25598,-2.2430723,-79.73736,312.72125,-167.35403,-19.783401,-174.85655,-514.6514,56.457573,-243.94582,0.0,-0.0,-0.0,-45.38445,-145.18483,52.496628,-99.79118,-64.49717,-192.68877
133,-0.0,-0.0,-150.7348,-0.0,144.7153,0.0,0.0,-0.0,-0.0,-0.0,-0.0,-0.0,-0.0,-0.0,0.0,0.0,181.03279,-186.2581,-71.165474,-12.031015,-87.414085,351.91656,-374.97717,58.624424,190.39333,-644.93317,0.0,-142.3261,-0.0,-40.65448,37.15685,32.88918,-11.607769,39.116478,-124.52884,-187.77643,-135.62975
134,-86.40109,-0.0,-0.0,-0.0,129.28123,0.0,0.0,0.0,-0.0,-0.0,-0.0,-0.0,-0.0,-0.0,0.0,0.0,11.0217085,-91.850464,-12.001552,1.4598931,-54.959,52.818623,-49.180927,-7.2743616,177.1813,-788.55255,0.0,5.158008,-124.494125,0.0,-0.0,65.56383,106.82016,31.758804,-327.2511,-0.0,-72.67679
135,-0.0,-0.0,-0.0,-0.0,-0.0,0.0,0.0,-0.0,-0.0,-0.0,-0.0,-0.0,-0.0,-0.0,0.0,0.0,33.738636,-241.17593,-179.62064,-8.60682,-40.84848,558.7385,41.7882,-13.540934,44.450428,-582.3132,-33.1786,-87.16065,-0.0,-5.5642195,46.071262,-74.206314,-51.194454,73.98629,-265.66483,-27.373854,-194.6101
136,-182.22627,0.0,-0.0,-0.0,65.989655,0.0,0.0,-0.0,0.0,-0.0,-0.0,-0.0,-0.0,0.0,0.0,-0.0,16.093494,15.2197485,-4.0459337,11.338823,0.5398823,149.44962,-475.2132,6.120269,143.21483,-32.738285,-279.28735,-5.6301455,0.0,0.0,-0.0,167.06783,-2.4803014,-156.79515,-34.453465,-0.0,-292.95734
137,-0.0,-0.0,-0.0,-0.0,41.73539,0.0,85.79535,-0.0,-0.0,-0.0,-0.0,-0.0,-0.0,-6.293153,122.16407,-0.0,36.040676,4.347244,-20.210546,-27.339935,2.4062898,-3.2745254,-1.0881228,3.4816852,0.15433483,-132.55673,52.39711,87.86528,-0.0,22.881605,-15.328974,21.977406,-2.858874,-69.63424,-0.0,-0.0,-89.07714
138,-0.0,0.0,-0.0,-0.0,-0.0,0.0,0.0,-0.0,0.0,-0.0,-0.0,-0.0,-0.0,-0.0,0.0,0.0,-78.54198,-307.50583,-139.674,19.757818,-6.639704,341.03503,85.74526,1.8669624,131.62067,-783.0784,3.447755,-618.67487,-39.018078,-24.455246,-37.553776,97.27181,-75.616554,-0.0,-233.42114,9.844609,-522.27185
139,-0.0,-0.0,-0.0,-0.0,121.488594,0.0,122.92031,-0.0,-0.0,-0.0,-0.0,-0.0,-0.0,36.651947,147.14392,0.0,4.0159106,-34.272575,-12.990552,-27.229612,-31.676855,365.4208,-196.36687,-6.8988094,22.55397,-291.77945,0.0,45.602287,0.0,14.432524,-38.452904,-13.812518,-29.62512,-33.116924,-110.38373,-42.35024,-45.577045
140,-0.0,-0.0,-0.0,-0.0,-0.0,0.0,0.0,-0.0,-0.0,-0.0,-0.0,-0.0,-0.0,-0.0,0.0,0.0,-9.351997,81.41785,7.4475327,-4.682217,-95.76146,478.26273,35.77903,-5.153402,19.31704,-321.18597,-44.73453,82.71512,11.873858,8.363603,23.82664,66.76975,-17.330606,49.19036,-47.647133,-150.92484,-69.49101
141,-0.0,-0.0,-0.0,-0.0,42.99432,0.0,78.7053,-0.0,-0.0,-0.0,-0.0,-0.0,-0.0,-4.0381265,116.45005,-0.0,29.952795,13.367348,-1.4899435,8.552514,7.748433,30.712244,88.0003,-2.5738323,1.6837758,-88.77938,-0.0,64.31034,-0.0,-15.6797085,16.12432,75.22274,-4.8988433,-37.73996,15.535354,-6.536168,-152.18408
142,-0.0,0.0,-0.0,-140.94954,201.09514,0.0,0.0,-0.0,0.0,-0.0,-153.72043,-0.0,-0.0,56.620995,0.0,0.0,-99.04134,-289.24622,-96.27851,-24.184906,-0.0,461.05484,-211.19557,-17.244284,-144.75433,-660.09985,-16.288776,-156.60582,-0.0,-0.0,-0.0,-17.20654,-53.273006,-198.1025,0.0,-7.577204,-417.92215
143,-0.0,0.0,-0.0,-0.0,-0.0,0.0,0.0,-0.0,0.0,-0.0,-0.0,-293.95447,-0.0,61.663498,0.0,0.0,-91.20345,-154.70615,-6.352791,8.849007,-61.288036,612.12787,70.26927,-1.1486049,-167.10095,-564.83527,42.14642,80.79231,11.948442,-21.16623,-52.548557,-119.82626,-79.883766,-377.8239,-236.45422,0.0,-581.5363
144,-0.0,-0.0,-0.0,-0.0,45.612526,0.0,102.881714,-0.0,-0.0,-0.0,-0.0,-0.0,-0.0,-36.45669,144.03648,0.0,2.6199772,-57.78556,-0.0,-4.4361258,-30.456078,80.574615,167.53676,1.1304891,2.31298,-113.91714,-256.995,-5.167608,-2.5621789,0.0,-0.0,-82.92429,14.663064,-24.183899,6.651001,0.0,9.036932
145,-0.0,-0.0,-0.0,-0.0,46.256474,0.0,81.64453,-0.0,-0.0,0.0,-0.0,-0.0,-0.0,-11.401524,127.59557,-0.0,-17.482744,4.2938824,-1.1023024,171.21797,-13.259724,97.37598,112.757965,3.400091,2.6946123,-83.572525,-225.81631,-6.4019775,2.989582,0.0,-0.0,-103.40126,0.9594351,-32.249035,-1.6061132,-7.6708446,46.962948
146,-0.0,-0.0,-0.0,-0.0,-0.0,0.0,0.0,-0.0,0.0,-0.0,-0.0,-0.0,-0.0,-0.0,0.0,0.0,-44.53434,-212.11,-31.850727,24.012836,13.282135,226.02412,-138.9205,58.895515,46.27736,-815.40356,-0.0,-119.319466,-11.884772,-47.97051,-107.6302,14.735012,-84.410286,-0.0,-313.46124,-18.54301,-599.3692
147,-0.0,0.0,-128.55301,-0.0,158.8625,0.0,0.0,-0.0,0.0,-0.0,-0.0,-0.0,-0.0,-0.0,0.0,-0.0,61.280254,-303.83035,-38.44065,-13.126721,-0.0,384.54608,-216.88896,26.07092,410.65915,-421.4641,-56.3475,-6.1700735,-0.0,49.6751,-0.0,-176.23387,-90.40872,-344.52625,0.0,-20.16024,-344.80722
148,-232.56444,-0.0,-0.0,-0.0,196.11697,0.0,0.0,-0.0,90.57202,-0.0,-0.0,-0.0,-0.0,39.410275,0.0,0.0,-13.382108,-179.28131,-76.552414,0.0,-22.613377,107.97138,-1.2999197,-12.659461,-103.59296,-719.10095,0.0,-180.69827,-0.0,-3.7069054,-38.058796,84.10288,-192.0186,50.450523,-191.85326,-17.417896,-533.44464
149,-205.02493,-0.0,-0.0,-0.0,225.16461,0.0,0.0,-0.0,0.0,-0.0,-0.0,-380.1695,-0.0,93.49601,0.0,0.0,-107.47202,9.997569,-14.870549,-50.659233,-0.43650928,358.91983,-333.96246,18.725693,-16.806824,-433.4753,0.0,-106.26536,0.0,23.801733,60.501434,82.16732,54.906204,-335.0597,-134.16148,-38.330196,-568.31445
150,-0.0,0.0,-0.0,-0.0,60.481552,0.0,83.411026,-0.0,-0.0,-0.0,-0.0,-0.0,-0.0,-11.674238,133.82043,-0.0,12.228117,-29.445919,4.4787273,-10.439281,-43.16209,70.99078,51.49023,-2.5468776,2.7256494,-174.88535,-0.0,36.489883,-0.0,-12.458743,19.603428,25.04361,-1.537348,-0.0,25.247843,-61.28539,-50.160557
151,-0.0,-0.0,-0.0,-0.0,21.811377,-0.0,101.39119,0.0,-0.0,-0.0,-0.0,-0.0,-0.0,-40.885887,117.20373,0.0,36.609318,-2.6885269,-0.6346912,54.991825,-12.660033,39.115208,117.59614,-2.343809,-3.6348357,-142.7901,-0.0,54.520134,-32.12817,24.963144,-24.080074,-17.40486,51.23084,34.186207,18.397518,-0.0,-6.210627
152,-0.0,0.0,-0.0,-0.0,-0.0,0.0,0.0,-0.0,0.0,-0.0,-0.0,-0.0,-0.0,-0.0,0.0,-0.0,54.81119,41.42245,-60.10265,-15.952072,-41.968693,462.82843,-269.8198,27.023994,15.214961,-171.25514,-0.0,17.871994,-178.76526,0.0,-0.0,-95.94161,238.09465,-825.63043,-65.47925,-0.0,-552.0157
153,-0.0,0.0,-0.0,-0.0,78.6835,0.0,58.987892,-0.0,-0.0,-0.0,-0.0,-0.0,-0.0,-1.935751,87.34289,-0.0,91.14914,98.84126,15.537553,-34.174427,-4.758178,-47.91836,-106.94746,34.35043,4.5913153,-32.737198,36.19573,22.392792,-17.267752,39.274834,-21.135628,-123.14169,-2.753834,-101.005714,0.2972992,-0.0,-29.092321
154,-0.0,-0.0,-0.0,-0.0,56.92069,0.0,87.275475,-0.0,-0.0,-0.0,-0.0,-0.0,-0.0,10.2801075,143.84058,-0.0,80.54072,91.85245,-26.926699,-6.992225,-69.189926,42.29039,-195.37599,-9.103154,4.353595,-29.95162,61.223175,-5.0793366,1.433793,23.848932,-13.704629,76.88334,-40.180515,-526.0003,-14.722939,-32.03937,-118.36874
155,-0.0,0.0,-0.0,-0.0,-0.0,0.0,0.0,-0.0,0.0,-0.0,-0.0,-0.0,-0.0,-0.0,0.0,-0.0,59.540524,-9.205899,-5.3246846,4.3228774,-21.83216,263.99765,-442.75363,67.895164,137.1289,-18.632786,-50.489807,1.4033753,0.0,-7.7579384,23.94339,118.90909,-35.63012,-56.341442,-28.55229,-0.0,-453.59567
156,-0.0,0.0,0.0,-0.0,13.105639,-0.0,102.951775,-0.0,0.0,-0.0,-0.0,-0.0,-0.0,-48.554398,89.517334,-0.0,128.02321,-210.15576,-0.0,-4.551436,13.017389,25.670397,-202.82547,-9.024076,1.7199473,-539.5719,-302.66992,-89.05475,-2.4882264,31.88191,-110.769135,27.419786,-23.05658,-86.05342,-31.144728,39.553795,-448.70148
157,-0.0,0.0,-0.0,-0.0,-0.0,0.0,0.0,-0.0,-0.0,-0.0,-0.0,-0.0,-0.0,-0.0,0.0,0.0,38.316124,53.188343,2.2495875,-40.675877,-5.311277,6.2842917,-95.531204,15.178441,116.16368,-102.08584,-152.73131,11.679525,-0.0,-13.859686,11.2386875,80.11067,-53.49221,-100.459564,-10.070676,-0.0,-48.45782
158,-0.0,-0.0,-0.0,-0.0,55.45282,0.0,88.14692,-0.0,-0.0,-0.0,-0.0,-0.0,-0.0,-5.550101,125.884735,-0.0,3.100266,45.906162,0.0,-14.714738,-30.183367,97.40032,165.05618,-1.8655936,2.9812007,-108.20844,-0.0,25.94299,0.0,-5.692284,25.434334,-114.96911,-8.483034,-0.0,2.191703,-0.0,-84.752716
159,-0.0,0.0,-0.0,-150.39317,219.55283,0.0,0.0,-0.0,0.0,-0.0,-216.08572,-0.0,-0.0,49.554005,0.0,0.0,12.660005,-246.5089,-57.357265,-27.44709,-52.280544,176.93771,-262.76843,26.585373,-82.8435,-347.7321,-26.84544,-147.46971,-19.683409,-8.922404,19.40618,185.11844,-582.79535,-301.8663,449.05252,-0.0,-534.51733
160,-0.0,-0.0,-0.0,-0.0,149.26213,0.0,205.95715,-0.0,-0.0,-0.0,-0.0,-0.0,-0.0,23.337114,168.78741,0.0,115.26904,-130.41086,-48.035854,26.885513,-20.216883,514.13586,128.0653,-26.473917,27.883347,-665.8271,-0.0,-29.455198,-298.68616,-31.6578,75.806946,166.89433,14.842643,34.29991,-161.76625,-0.0,-292.9384
161,-0.0,-0.0,-0.0,-0.0,21.320862,-0.0,110.18752,0.0,-0.0,-0.0,-0.0,-0.0,-0.0,-39.16086,125.47595,0.0,-13.796702,35.773067,-9.187807,-16.049942,-0.0,63.25619,122.1106,3.84397,-4.13169,-218.72174,46.54786,-41.267647,-0.0,0.0,-0.0,-1.4713323,29.575861,-0.0,32.625298,-9.776394,-10.172632
162,-0.0,0.0,0.0,-0.0,-0.0,0.0,0.0,0.0,-0.0,-0.0,-0.0,-0.0,-0.0,0.0,0.0,0.0,25.890146,-60.25148,-2.6891437,-17.26142,-30.559147,-48.89121,-247.65543,17.332771,8.582536,-115.09064,-50.685528,32.666912,-0.0,92.75342,-25.074888,32.146576,24.972853,3.288366,-5.0145664,-0.0,0.24487609
163,-0.0,0.0,-0.0,-0.0,182.19958,0.0,101.028366,-0.0,0.0,-0.0,-0.0,-0.0,-0.0,56.76992,169.28578,0.0,93.88661,-410.264,-31.04829,3.082918,-27.978132,659.08344,-413.2289,-19.780643,49.498104,-937.91907,44.50781,16.220451,-0.0,22.385448,-52.721607,44.030163,-66.94165,-103.3252,-325.7409,-42.47845,-11.705168
164,-0.0,0.0,-0.0,-0.0,-0.0,0.0,0.0,-0.0,-0.0,-0.0,-0.0,-0.0,-0.0,0.0,0.0,-0.0,-4.0923204,-17.549553,0.45596153,-19.495625,-31.176762,-0.8852025,-139.41922,8.227515,13.25832,-113.3392,-27.761915,27.592714,-0.0,33.03204,-13.347142,-125.73422,3.1253557,-0.0,5.173265,-73.05738,-30.580969
165,-0.0,0.0,-0.0,-0.0,-0.0,0.0,0.0,-0.0,0.0,-0.0,-0.0,-267.44354,-0.0,35.912094,0.0,0.0,-6.65787,-153.86264,-14.8350725,-19.522348,-52.066326,377.25757,48.511433,-7.7049212,-14.308736,-420.48468,-146.07155,-237.04416,-96.93569,-7.1421638,-168.91176,-35.283314,-116.132034,-243.32745,0.0,0.0,-599.6479
166,-0.0,-0.0,-0.0,-0.0,9.947559,-0.0,89.63781,0.0,-0.0,-0.0,-0.0,-0.0,-0.0,-26.415016,102.52638,-0.0,26.797506,43.902653,-3.198293,-24.082779,7.7329283,47.420753,140.5921,-2.4777825,-3.798279,-124.45402,-45.573433,92.593834,-0.0,0.0,-0.0,65.75317,32.1276,20.32792,12.709116,-3.7896538,-42.785534
167,-0.0,0.0,-0.0,-0.0,21.585426,0.0,75.42388,-0.0,-0.0,-0.0,-0.0,-0.0,-0.0,-29.92082,91.46578,0.0,-8.746954,65.04734,121.3649,3.5240383,1.3472648,131.63695,311.66565,2.024449,-1.3502208,-215.76997,27.657974,-54.709217,-47.92949,-11.828213,24.765654,-1.0616868,20.669128,48.850704,40.30657,0.0,60.840565
168,-0.0,0.0,-0.0,-0.0,75.43583,0.0,57.314014,-0.0,0.0,-0.0,-0.0,-0.0,-0.0,-10.765602,164.6624,-0.0,-7.8328233,-130.75072,-5.302232,-16.746708,18.268446,302.95,10.020579,-16.739815,15.493274,9.352396,-546.5844,-34.048164,0.0,-1.9097884,-31.840113,-121.93236,-39.31279,-162.61566,-9.935562,13.659378,-131.68481
169,-0.0,0.0,-0.0,-172.64362,209.849,0.0,0.0,-0.0,0.0,-0.0,-0.0,-0.0,-394.11548,63.352398,0.0,0.0,9.116425,-76.3838,-24.801674,47.347225,-0.31296632,340.67014,-648.27026,63.989155,16.231173,0.0,9.891503,-94.23859,-0.0,-0.0,-0.0,226.46664,-228.97198,-467.27042,-109.81063,-87.741104,-340.611
170,-0.0,-0.0,-0.0,-0.0,85.02387,0.0,94.51133,-0.0,0.0,-0.0,-0.0,-0.0,-0.0,25.227978,132.7526,-0.0,5.590787,155.08177,-12.059893,55.629013,-11.9303665,195.61105,-208.82964,-14.006284,7.6479173,-208.90102,-0.0,9.364081,0.0,-0.0,-0.0,71.86133,-37.06322,-464.9024,-85.08346,-16.07859,-435.10385
171,-0.0,-0.0,-0.0,-0.0,46.99347,0.0,85.35241,-0.0,0.0,-0.0,-0.0,-0.0,-0.0,-7.0462065,122.4529,-0.0,77.299835,33.05538,-8.737307,29.605118,-5.401217,111.81679,-25.467028,-11.251215,3.8041747,-197.98895,-54.52301,29.878975,0.0,10.557326,-22.974838,115.36024,-10.508662,40.421654,-17.550764,-19.108467,-131.9602
172,-0.0,-0.0,0.0,-0.0,-0.0,0.0,0.0,0.0,-0.0,-0.0,-0.0,-0.0,-0.0,0.0,0.0,0.0,61.16476,-30.039722,-6.2033453,-16.17823,-39.317463,81.60369,-232.6064,-5.280648,68.6009,-369.62827,-0.0,-17.72193,-0.0,73.386314,-28.8387,-45.91548,6.8738513,8.278971,-19.69807,-31.541365,-8.644112
173,-0.0,-0.0,-0.0,-0.0,-0.0,0.0,0.0,-0.0,0.0,-0.0,-0.0,-369.32297,-0.0,70.99263,0.0,0.0,-63.612442,-220.33266,-9.095895,-20.246105,-78.44851,545.6955,-243.03482,-5.8827477,-198.58688,-518.574,0.0,-109.925385,0.0,-3.244123,-50.428837,-92.71514,26.952633,-133.52298,0.0,-0.0,-368.86588
174,-0.0,0.0,-0.0,-0.0,-0.0,0.0,0.0,-0.0,0.0,-0.0,-0.0,-0.0,-0.0,-0.0,0.0,-0.0,166.61348,43.470974,-53.325455,51.964966,-45.40357,278.18622,-545.50275,-25.81865,34.93844,-94.29488,64.9896,-0.07356465,0.0,-21.977398,22.14094,150.3492,-24.049837,-545.4762,-52.775867,-0.0,-157.07085
175,-290.16608,-0.0,-0.0,-0.0,236.53627,0.0,0.0,-0.0,0.0,-0.0,-0.0,-0.0,-0.0,-0.0,0.0,0.0,-1.9670962,-343.21335,-50.216625,10.073633,-14.265932,319.18912,-215.21223,-22.131964,248.28944,-782.132,-16.900377,-370.5575,-15.031586,-6.3948092,-42.006313,-70.14344,-28.80972,76.69149,122.99925,-0.0,-589.91016
176,-143.81662,-0.0,-0.0,-0.0,120.18071,0.0,0.0,-0.0,0.0,-0.0,-0.0,-0.0,-357.14343,-10.217563,0.0,0.0,22.02853,-205.99774,-49.557133,51.257412,-11.863719,219.79456,8.318775,83.3386,459.3635,-1065.5808,-0.0,-305.9449,-0.0,44.74299,-98.95729,145.11732,-44.369034,30.234135,-219.81207,-0.0,-602.43787
177,-0.0,-0.0,-0.0,-0.0,13.524695,0.0,101.40589,0.0,-0.0,-0.0,-0.0,-0.0,-0.0,-29.249868,115.707565,-0.0,-17.394066,10.650366,-16.3877,-35.59204,1.504035,66.89398,163.66158,-0.0,-4.1117244,-241.2085,50.218605,89.55666,-0.0,-27.23279,24.603811,24.921873,-8.655806,-0.0,17.883856,-0.0,-93.22243
178,-0.0,-0.0,-0.0,-0.0,-0.0,0.0,0.0,-0.0,0.0,-0.0,-0.0,-0.0,-0.0,-0.0,0.0,0.0,63.008774,-283.64902,-57.788673,3.3353353,-85.28485,349.51526,-478.4628,-24.946407,267.99185,-653.7031,0.0,-54.62611,-0.0,0.0,-0.0,209.60052,-155.35835,44.975197,0.0,-0.0,-281.22443
179,-0.0,0.0,-0.0,-0.0,180.72714,0.0,77.13755,-0.0,0.0,-0.0,-0.0,-0.0,-0.0,24.533829,171.4604,0.0,-32.724228,-442.6483,-7.010173,15.122006,-0.0,193.09845,-427.1083,-29.28366,43.24469,-437.56125,-212.61613,-51.019306,-0.0,30.760702,-24.834543,72.05691,-78.42467,-404.35812,0.0,-0.0,-366.9629
180,-0.0,-0.0,-0.0,-0.0,158.4483,0.0,170.88626,-0.0,-0.0,-0.0,-0.0,-0.0,-0.0,28.42761,170.22241,0.0,24.683107,-407.9014,-268.8644,31.80512,-11.744645,634.853,194.59839,-6.3560386,32.08561,-855.5027,-16.15348,-13.117932,-0.0,0.0,-0.0,48.499504,-33.34811,35.77195,-137.55382,-0.0,-82.36506
181,-0.0,0.0,-0.0,-0.0,128.77107,0.0,64.72061,-0.0,0.0,-0.0,-0.0,-0.0,-414.70056,50.725914,0.0,-0.0,137.40448,-106.4245,-34.26713,-1.8677943,-13.930811,562.0119,-771.80176,-29.601095,35.227013,123.922806,3.0205626,1.0588211,0.0,0.0,-0.0,-62.260845,106.22707,-582.64703,0.0,-0.0,-314.3173
182,-0.0,-0.0,-0.0,-0.0,52.750336,0.0,78.54982,-0.0,-0.0,-0.0,-0.0,-0.0,-0.0,-5.0819597,126.91906,-0.0,-1.9380676,-20.354847,-0.44266027,21.942036,5.272791,67.70666,59.15275,1.3430673,3.8374224,114.30261,-168.84538,-1.7164168,0.0,2.7689686,-0.0,-91.772415,-20.878914,-0.0,-5.014785,-0.0,-10.264485
183,-0.0,-0.0,-0.0,-0.0,154.39975,0.0,146.03564,-0.0,-0.0,-0.0,-0.0,-0.0,-0.0,64.481895,149.92458,0.0,12.675343,-88.840706,-9.1325,24.337729,-9.007691,520.07086,-314.932,-13.324091,36.413727,-379.67157,0.0,-14.346347,-36.999718,0.0,-0.0,152.85237,-94.06941,-43.69737,-150.34117,-102.21148,-163.07217
184,-0.0,0.0,-0.0,-0.0,77.53277,0.0,62.289238,-0.0,-0.0,-0.0,-0.0,-0.0,-0.0,0.10845137,96.33522,-0.0,116.984726,53.188293,0.18726942,-2.3356447,-23.314384,45.529602,-67.40732,-16.117485,7.0503926,-158.1766,-50.512756,56.78037,-0.0,-19.07459,17.178381,114.60071,-45.466537,-0.0,-5.0015497,-0.0,-253.03976
185,-0.0,-0.0,-0.0,-0.0,165.63977,0.0,156.15408,-0.0,-0.0,-0.0,-0.0,-0.0,-0.0,76.589745,146.56728,0.0,-37.251953,-69.45694,-52.289047,17.747263,-7.3223414,490.8999,-299.39664,-11.21378,31.63189,-368.39398,-45.289352,42.257065,-0.0,0.0,-0.0,63.823563,-49.274475,-0.0,-203.679,-0.0,-96.179085
186,-0.0,-0.0,-0.0,-0.0,28.151196,0.0,116.06198,0.0,-0.0,-0.0,-0.0,-0.0,-0.0,-44.591995,134.44135,0.0,64.154274,-37.083702,-5.0265374,-6.5392036,-1.9885647,123.00679,133.44237,-0.19135725,-1.091582,-107.67129,-225.69278,-19.772549,-0.0,0.0,-0.0,-34.41854,-25.365818,16.681978,-2.9117322,-0.0,34.084835
187,-0.0,0.0,0.0,-0.0,-0.0,0.0,0.0,-0.0,0.0,-0.0,-0.0,-0.0,-0.0,-0.0,0.0,-0.0,74.839584,104.408264,-8.711265,-8.906642,-46.89669,296.3547,-484.95676,-18.670746,178.14906,-56.897095,-0.0,-34.494427,27.120798,-7.273877,-68.59206,-106.01821,-50.79828,-579.92236,-51.54027,-0.0,-311.54205
188,-0.0,-0.0,-0.0,-0.0,11.74714,0.0,131.95625,0.0,-0.0,-0.0,-0.0,-0.0,-0.0,-40.517723,148.56302,0.0,48.474174,-62.482094,-59.659657,0.9655999,-19.23438,115.426125,-90.77526,-2.14009,-4.781538,-149.48904,54.938213,41.507008,-3.212297,0.0,-0.0,60.416447,-102.48138,-20.84639,4.4632225,-0.0,-58.316216
189,-0.0,0.0,-0.0,-0.0,-0.0,0.0,0.0,-0.0,0.0,-0.0,-0.0,-348.83698,-0.0,83.169235,0.0,0.0,-18.657034,-126.72657,-22.437872,-4.5699067,3.346018,591.06305,-282.67178,-27.080326,-217.7179,-354.67996,0.0,-13.255394,-0.0,-32.948624,-28.910477,91.62698,-223.88803,-215.29262,-193.83813,-64.370544,-377.95316
190,-0.0,-0.0,-0.0,-0.0,-0.0,0.0,0.0,-0.0,-0.0,-0.0,-0.0,-296.58328,-0.0,69.048874,0.0,0.0,-31.972404,-113.35457,-24.264763,22.674881,-71.67403,423.75443,-424.40146,-1.8200848,-145.36351,-556.80646,71.8107,-34.14343,-11.661198,21.284714,-27.618305,108.045265,-98.90799,80.652275,-182.92433,-125.65302,-54.434742
191,-0.0,-0.0,-0.0,-0.0,9.0974655,0.0,89.16223,0.0,-0.0,-0.0,-0.0,-0.0,-0.0,-20.832603,96.66578,-0.0,98.21004,73.148865,-11.232593,-11.669614,-6.41443,64.10763,171.72473,0.29347074,-3.3696551,-248.3511,-0.0,143.83173,-0.0,-22.635962,22.718048,55.85789,11.058738,43.539898,11.028829,-24.32131,-97.90551
192,-0.0,-0.0,-0.0,-0.0,19.876034,-0.0,106.78461,0.0,-0.0,-0.0,-0.0,-0.0,-0.0,-43.198677,132.27528,-0.0,-0.0,37.50135,-13.302571,26.253876,-47.097008,40.222218,50.30907,-3.7183876,-4.621906,-152.61716,-0.0,24.734474,-0.0,65.3227,-50.652145,1.7509587,-19.808811,15.9681425,10.07573,-0.0,-21.0412
193,-0.0,0.0,-0.0,-0.0,37.349773,0.0,93.42483,-0.0,-0.0,-0.0,-0.0,-0.0,-0.0,-25.860022,130.5824,-0.0,31.41705,-36.081593,-1.4779128,17.568096,-15.304882,19.921211,-40.160587,-8.026368,-0.97147244,-4.2433786,-0.0,41.626915,-0.0,0.0,-0.0,66.89289,7.9410152,-0.0,26.459595,-0.0,15.845136
194,-0.0,-0.0,-0.0,-0.0,-0.0,0.0,0.0,-0.0,0.0,-0.0,-0.0,-0.0,-0.0,-0.0,0.0,-0.0,68.24761,-56.857845,-0.0,-8.43747,-61.251114,465.51102,-489.0322,-16.727116,0.0,-214.51952,-21.215687,-8.100296,0.0,35.899765,-47.920135,169.5604,-93.94108,-291.71603,0.0,-0.0,-157.2465
195,-0.0,-0.0,-0.0,-0.0,-0.0,0.0,0.0,-0.0,0.0,-0.0,-0.0,-0.0,-153.027,-46.688118,0.0,0.0,26.718527,42.612988,-25.055546,-0.5097761,2.963443,251.96822,-57.206436,-15.16557,29.86206,-149.36813,-54.258488,19.13197,18.637968,0.0,-0.0,94.68198,2.8289785,-26.673159,0.0,7.035405,-155.1485
196,-0.0,0.0,-0.0,-0.0,108.8262,172.45587,0.0,-0.0,-0.0,-0.0,-0.0,-0.0,-313.1719,-18.046412,0.0,0.0,-30.388878,-65.707375,-22.976988,-4.2651706,-38.672485,388.10583,-119.63617,-19.47189,26.147919,-313.78217,-11.94515,17.062025,-0.0,-43.127743,47.997128,45.83436,-23.72749,-0.0,-116.308075,-0.0,-130.92752
197,-0.0,-0.0,-0.0,-167.21956,213.37346,0.0,0.0,-0.0,0.0,-0.0,-0.0,-386.90363,-0.0,103.63582,0.0,0.0,-152.84511,74.81379,-30.167707,-26.966694,-3.2880795,601.1329,-354.4446,20.398787,-98.36542,-513.4143,0.0,-10.363709,15.81911,32.708252,58.30452,44.37832,-179.6773,-67.37047,-267.73737,-84.53569,-312.06598
198,-0.0,-0.0,-0.0,-0.0,24.818546,0.0,99.204285,0.0,-0.0,-0.0,-0.0,-0.0,-0.0,-31.440805,112.86922,0.0,4.638345,14.066289,-4.535113,-0.80703986,-5.113706,152.6691,154.2629,-0.44630837,-1.3156606,-67.11501,-59.19621,30.792135,5.330953,-14.077199,32.315617,14.021112,-24.07363,27.65197,0.0,-0.0,16.422325
199,-148.81606,-0.0,-0.0,-0.0,125.729256,0.0,0.0,-0.0,0.0,-0.0,-0.0,-0.0,-0.0,-0.0,0.0,0.0,73.607185,-266.39987,-39.164494,-16.581326,-24.309004,79.14073,-69.29329,2.7348485,242.1937,-951.27454,-5.188993,-44.46192,-0.0,0.0,-0.0,24.947487,-40.97198,30.264553,-386.19217,-18.238573,-205.26102
200,-0.0,0.0,-0.0,-0.0,-0.0,0.0,0.0,-0.0,0.0,-0.0,-0.0,-342.7519,-0.0,88.52852,0.0,-0.0,15.850719,-31.16192,-65.14716,-7.72348,-22.591011,691.3264,-821.24896,-24.710249,-32.876278,-141.84131,59.897648,3.1766279,0.0,-21.51427,31.924118,45.5666,-130.88797,-340.39447,-206.98103,-0.0,-261.63086
201,-0.0,0.0,-0.0,-115.24344,68.977806,0.0,0.0,-0.0,0.0,-0.0,-0.0,-216.90997,-0.0,7.9064283,0.0,-0.0,27.040932,77.112434,-3.721986,-0.16227613,-21.549,208.40369,-359.80267,-27.986126,-16.445335,-235.35828,-149.59657,-40.35511,0.0,4.2272487,-23.116589,-57.633003,-29.713188,-0.0,-34.423115,-0.0,-172.13765
202,-0.0,-0.0,-0.0,-152.64684,167.86327,0.0,0.0,-0.0,0.0,-0.0,-0.0,-0.0,-0.0,-0.0,0.0,0.0,-15.313036,-29.59994,-25.039959,-7.66246,4.280855,388.64972,-310.95795,9.666821,171.91936,-481.91647,-36.43142,-230.4956,0.0,-185.60373,-183.55196,-99.102745,-66.82105,-0.0,-359.61768,-40.897438,-525.51196
203,-214.02524,0.0,-0.0,-0.0,176.79903,0.0,0.0,-0.0,0.0,-0.0,-0.0,-0.0,-0.0,-0.0,0.0,0.0,-2.1983504,-280.4025,-7.1802397,-25.7609,-16.385647,38.74927,-11.373559,-12.895787,307.84955,-723.3047,-0.0,-453.90466,-26.949272,3.0245554,32.310562,-247.87445,-199.61049,-0.0,0.0,-0.0,-548.9807
204,-0.0,-0.0,-0.0,-0.0,-0.0,-0.0,0.0,0.0,-0.0,-0.0,-0.0,-0.0,-0.0,0.0,0.0,-0.0,83.14819,-13.974546,-6.4947453,22.124525,-11.85603,-40.573627,56.46453,1.1860579,-77.401794,-238.73637,-0.0,-17.89321,-0.0,0.0,-0.0,-16.80433,35.05605,19.410717,39.547253,-8.927417,16.40201
205,-308.92407,0.0,-0.0,-0.0,205.56583,0.0,0.0,-136.47006,0.0,-0.0,-0.0,-0.0,-0.0,73.80825,0.0,0.0,9.793475,-263.47995,-0.0,7.681631,-159.83627,415.10382,-254.6111,-2.317901,-59.88339,-541.8517,30.749044,-45.049347,0.0,40.119785,-171.05089,-235.632,45.224136,-0.0,0.0,-29.059483,-105.91042
206,-0.0,-0.0,-0.0,-0.0,-0.0,0.0,0.0,-0.0,0.0,-0.0,-0.0,-388.12946,-0.0,83.302574,0.0,0.0,-12.929901,-79.23565,-156.31895,2.4425106,-23.906977,455.4944,-492.91504,7.943878,-128.19073,-327.85297,-39.34218,-58.288525,-0.0,-12.738884,-64.94106,189.1155,-101.1404,66.797,-414.9533,-0.0,-326.23517
207,-0.0,-0.0,-0.0,-0.0,87.75098,0.0,95.16692,-0.0,0.0,-0.0,-0.0,-0.0,-0.0,39.441124,137.11981,-0.0,59.18013,-84.18313,-55.835342,54.4773,-0.0,102.84276,-499.6494,72.09357,5.4931417,-178.65111,77.98376,6.8643885,5.8837385,0.0,-0.0,168.4011,-38.605778,-868.3362,-80.95015,-31.635206,-408.45944
208,-0.0,0.0,-0.0,-0.0,-0.0,0.0,0.0,-0.0,0.0,-0.0,-0.0,-350.32898,-0.0,82.81771,0.0,0.0,-3.4936552,-107.19457,-9.697721,6.5735435,-24.880365,638.9651,-395.21744,-22.193098,-94.79561,-333.1329,58.458496,30.271996,-1.5489644,2.219193,27.02995,179.99266,-254.02377,-104.25401,-271.43365,-0.0,-320.48184
209,-249.1231,-0.0,-0.0,-0.0,236.56955,0.0,0.0,-0.0,0.0,-0.0,-174.13287,-0.0,-0.0,62.844307,0.0,0.0,-36.715828,-100.52138,-60.16115,-58.62302,-86.30514,238.83875,-140.43648,67.46279,-166.32298,-357.56473,0.0,-91.462944,-0.0,12.866126,31.24051,162.95288,-98.241035,-70.81196,-331.13,-55.564278,-440.3837
210,-0.0,-0.0,-0.0,-0.0,59.52083,0.0,87.5274,-0.0,0.0,-0.0,-0.0,-0.0,-0.0,-4.217761,125.1004,-0.0,-6.8283176,49.000134,0.041337267,-4.328021,-3.2766163,113.932976,146.21497,-0.074787885,5.7619286,76.49188,-129.08612,5.885716,12.06981,0.4241453,-23.809969,-65.827774,-8.847726,-117.262985,-5.634875,-0.0,-74.772766
211,-0.0,-0.0,-0.0,-0.0,-0.0,0.0,0.0,-0.0,0.0,-0.0,-0.0,-333.7926,-0.0,83.38136,0.0,0.0,-65.73981,-166.54817,-10.627149,-12.664049,-29.7766,478.46057,-317.56012,-10.994326,-124.69585,-494.73657,0.0,-0.25434527,-0.0,-1.2218937,44.724632,107.0239,-95.69248,-51.494,-319.6271,-58.45099,-79.03108
212,-0.0,0.0,-0.0,-0.0,67.1289,0.0,41.977154,-0.0,0.0,-0.0,-0.0,-0.0,-0.0,-1.025415,105.70941,-0.0,251.51056,100.39876,-1.0859259,2.0492444,-42.57986,161.19527,-411.86655,-12.922773,11.709709,-142.52385,-284.8586,-1.0957308,-0.0,72.49089,-104.81499,-0.0,-13.452713,-48.88467,-26.665855,-0.0,-0.0
213,-0.0,0.0,-0.0,-0.0,21.447807,0.0,111.83001,-0.0,0.0,-0.0,-0.0,-0.0,-0.0,-37.977192,140.24353,-0.0,251.40625,-92.40791,-12.612329,8.567215,8.947518,187.84344,-106.43019,-24.635994,1.6614779,-369.78378,-265.12692,-64.82561,0.0,26.617111,-35.550175,99.6415,0.66937214,68.39852,0.0,0.0,-128.72858
214,-0.0,0.0,-0.0,-0.0,66.78527,0.0,59.176254,-0.0,0.0,-0.0,-0.0,-0.0,-0.0,0.4084854,146.56927,-0.0,77.3152,-125.03408,-2.14806,6.9689255,-124.21498,239.19377,-453.96823,-26.643538,12.251394,-101.31339,-167.98538,-9.188847,0.0,15.0539,-222.97617,-108.43593,-19.131826,-280.53735,0.0,-0.0,-271.8286
215,-0.0,-0.0,-0.0,-0.0,-0.0,0.0,0.0,-0.0,-0.0,-0.0,-0.0,-251.41803,-0.0,44.825455,0.0,0.0,-15.14205,-22.354834,-14.799638,-20.21153,-32.70178,339.76382,-146.25264,2.5144587,-12.147381,-399.71646,85.32918,32.436085,-0.0,-24.888414,22.542961,29.182934,-32.986393,-0.0,-92.9307,-47.65314,-60.715702
216,-0.0,-0.0,-0.0,-0.0,163.31049,0.0,192.14632,-0.0,-0.0,-0.0,-0.0,-0.0,-0.0,30.708376,168.5358,0.0,83.67227,-201.80916,-162.97124,4.4676566,-32.63846,722.6526,82.61666,-23.912758,39.548256,-901.2876,-5.099746,-84.31198,-44.113857,14.384803,-71.90624,74.04923,-42.59866,30.362318,-206.95084,-54.416664,-281.53775
217,-0.0,-0.0,-0.0,-0.0,28.70341,0.0,133.9259,-0.0,0.0,-0.0,-0.0,-0.0,-0.0,-43.165394,132.89206,-0.0,164.70287,-62.717556,-8.969152,3.2201514,2.2826772,290.4297,136.93158,20.786453,1.5504628,-398.9355,-86.41227,-41.473278,6.306445,0.0,-0.0,-225.30804,-29.367258,41.812817,-24.713337,0.0,-255.34215
218,-0.0,0.0,-0.0,-0.0,-0.0,0.0,0.0,-0.0,0.0,-0.0,-0.0,-253.41943,-0.0,22.121292,0.0,0.0,-30.503029,-281.2756,-100.76329,-13.068787,-0.5376645,264.7439,90.21917,-11.229508,-71.998505,-784.9934,-0.19527711,-387.45206,-0.0,-0.0,35.984444,-21.164043,-22.385914,87.58249,-155.59042,14.976529,-498.89984
219,-0.0,-0.0,-0.0,-0.0,187.7581,0.0,46.63282,-0.0,0.0,-0.0,-0.0,-0.0,-0.0,92.78799,121.89935,-0.0,5.829733,-174.62164,-59.951534,2.4645658,-54.49495,582.69135,-735.64453,79.523315,50.71925,0.0,-55.0541,2.1035993,0.0,0.0,-0.0,-123.55009,-117.67471,-739.8978,-233.08966,-60.97566,-446.85114
220,-0.0,-0.0,-0.0,-0.0,-0.0,0.0,0.0,-0.0,-0.0,-0.0,-0.0,-312.12256,-0.0,79.518105,0.0,0.0,-4.030389,-75.784645,-37.92172,-53.401825,-27.91111,529.6425,-569.79364,4.2308245,-109.402084,-116.450714,0.0,68.369,-0.0,0.0,-0.0,143.52382,-53.87549,87.459885,0.0,-143.56905,-25.328465
221,0.0,-173.23534,-0.0,-0.0,88.41992,0.0,0.0,0.0,-0.0,-0.0,-0.0,-0.0,-0.0,-0.0,0.0,0.0,24.118216,5.0012302,-40.053337,29.90057,-47.079834,204.29503,-227.37178,-3.4867525,227.84003,-487.5236,32.79044,121.10678,-50.104317,0.0,-0.0,94.49809,6.204566,46.586666,-364.2292,-0.0,-58.802357
222,-0.0,-0.0,-109.775696,-0.0,192.75131,0.0,0.0,-0.0,-0.0,-120.41933,-0.0,-0.0,-0.0,75.55445,0.0,0.0,-44.321075,51.282024,-79.67025,-27.69806,-22.887264,230.77019,-490.28687,14.581361,-137.77385,-490.3216,-60.597305,-24.084705,-0.0,9.487832,-38.696556,35.23146,-56.316677,-53.891758,-265.7163,-64.673775,-68.848434
223,-0.0,-0.0,-0.0,-0.0,18.945864,-0.0,97.69807,0.0,-0.0,-0.0,-0.0,-0.0,-0.0,-35.004868,114.126915,0.0,94.07664,-0.3618848,-21.654234,-5.1028647,-7.369323,48.631405,86.6152,-0.75595117,-3.6214468,-141.26006,42.600204,7.8759527,-0.0,0.0,-0.0,59.817265,24.208948,15.705187,16.605959,-0.0,-1.8195803
224,-0.0,-0.0,-0.0,-155.98758,224.68454,0.0,0.0,-0.0,0.0,-0.0,-209.6641,-0.0,-0.0,51.047825,0.0,0.0,-1.7526852,-150.93494,-7.374736,-75.02174,-3.4474368,262.48245,-237.04463,23.065893,-158.14148,-547.089,-28.28599,-128.88214,-0.0,1.1753427,-32.456013,141.75401,-68.7303,-74.6525,227.5188,-73.99441,-337.0118
225,-0.0,-0.0,-249.63753,-0.0,227.93501,0.0,0.0,-0.0,0.0,-0.0,-0.0,-378.46088,-0.0,59.72761,0.0,0.0,2.0852008,-152.64159,-44.361767,-10.205496,-99.38066,-201.52164,139.30133,-19.05381,-188.55038,-156.9532,0.0,-251.23845,-0.0,0.0,-0.0,-12.132645,-251.68942,140.5813,-355.24603,-24.457035,-119.36198
226,-0.0,-0.0,-0.0,-0.0,-0.0,0.0,0.0,-0.0,-0.0,-0.0,-0.0,-0.0,-0.0,-0.0,0.0,0.0,12.365597,-63.83212,-4.985532,38.16688,-90.55636,204.35681,-290.89178,100.79181,23.14396,-422.13156,21.045975,-14.600304,-0.0,0.0,-0.0,62.45124,-23.348972,-15.697824,-186.66484,-0.0,3.68667
227,-0.0,-0.0,-0.0,-0.0,19.286125,0.0,103.699066,0.0,-0.0,-0.0,-0.0,-0.0,-0.0,-34.711357,118.94793,0.0,52.665844,-17.478928,-2.2689736,6.673578,-14.171638,85.12339,78.79487,-2.6277785,-2.9358258,-59.849117,-35.63206,-45.59923,-0.0,-20.514555,26.942797,58.970272,21.781116,28.436268,9.2979765,-9.406556,39.711132
228,-0.0,-0.0,-0.0,-64.21951,60.543915,0.0,0.0,-0.0,0.0,-0.0,-0.0,-0.0,-0.0,-0.0,0.0,0.0,28.72854,-163.17618,-184.3694,-1.2060307,6.396793,409.74182,-304.16025,-8.580717,97.657135,-778.64087,-31.220474,-9.354899,0.0,11.398447,-106.96413,-31.608547,-12.61923,40.371742,-340.69995,0.0,-484.84677
229,-0.0,-0.0,-0.0,-0.0,144.53229,0.0,199.21507,-0.0,-0.0,-0.0,-0.0,-0.0,-0.0,28.504251,153.5476,0.0,100.936905,-174.70493,-200.64842,2.39515,-20.11693,720.3957,360.54117,-18.419954,33.817566,-880.49365,10.761447,-34.95318,-175.5477,9.078295,-66.98493,121.0268,-26.920372,33.9446,-194.18553,-0.0,-203.98843
230,-0.0,-0.0,-0.0,-56.268047,100.49887,0.0,0.0,-0.0,0.0,-0.0,-148.06435,-0.0,-0.0,-3.8489537,0.0,0.0,-16.429373,-189.96109,-211.29297,22.515263,-0.5194085,306.99524,-162.44153,-8.779675,-127.42863,-591.07697,-25.99584,-76.28731,-11.473475,12.797541,-37.879242,-143.36786,-23.30543,20.971558,-273.63828,0.0,-219.33705
231,-0.0,0.0,-0.0,-0.0,165.17586,0.0,45.691113,-0.0,0.0,-0.0,-0.0,-0.0,-0.0,30.378479,157.56929,-0.0,42.515167,-332.26758,-6.5169044,-2.472047,-10.353358,234.24391,-65.53937,4.8658524,44.002,-439.71024,-305.55606,12.826871,-0.0,-22.349693,30.191732,-16.868652,-77.946915,-849.3469,0.0,-0.0,-572.66064
232,-0.0,-0.0,-0.0,-0.0,43.26848,0.0,89.00614,-0.0,-0.0,-0.0,-0.0,-0.0,-0.0,-6.1095657,127.47,-0.0,32.772804,-12.177614,-4.880714,17.194433,-21.279806,-1.0062073,-14.3061,14.090584,0.25939763,-116.22108,-0.0,65.49304,-0.0,-22.448381,16.33376,54.706985,-1.6666234,-32.99499,-0.0,-23.789068,-115.03576
233,-0.0,-0.0,-0.0,-0.0,169.81937,0.0,106.86528,-0.0,-0.0,-0.0,-0.0,-0.0,-0.0,99.106415,138.53708,0.0,-1.9517139,-92.14751,-4.402078,20.343943,-38.80106,558.7989,-614.17175,18.147346,43.74208,-241.9371,0.0,5.30233,0.0,-8.676201,-24.308187,215.31389,-189.60905,-0.0,-239.15227,-116.92198,-233.19836
234,-0.0,-0.0,-0.0,-0.0,119.23123,0.0,181.54329,0.0,-0.0,-0.0,-0.0,-0.0,-0.0,21.115505,145.74023,0.0,-13.302612,-138.8694,-101.40333,72.84457,-116.19603,136.33765,-177.82907,-15.212742,17.217133,-577.6511,2.5384772,-21.202703,-0.0,0.0,59.294018,45.734554,42.230396,3.9559119,-67.4155,-0.0,-98.98671
235,-0.0,-0.0,-0.0,-0.0,9.119368,0.0,136.4159,0.0,-0.0,-0.0,-0.0,-0.0,-0.0,-46.806244,157.28581,0.0,76.340256,-75.31477,-28.79696,-86.54159,-8.266496,78.90368,-100.21311,-10.303514,-4.806486,-115.74773,48.422703,-66.70164,-0.0,0.0,-0.0,62.259987,-126.9726,16.603115,10.362142,-13.833586,-2.7423074
236,-0.0,-0.0,-0.0,-0.0,64.318634,0.0,94.730415,-0.0,-0.0,-0.0,-0.0,-0.0,-0.0,-16.180302,135.49371,0.0,-6.759309,-23.329947,-0.21248928,10.782603,-0.0,78.97886,54.68323,-0.08489495,4.7552266,-28.129766,-149.52191,-13.884298,-1.4018704,0.0,-0.0,65.38525,0.590384,-29.815748,-5.809949,-41.958885,22.452757
237,-0.0,-0.0,-0.0,-135.44638,203.487,0.0,0.0,-0.0,0.0,-0.0,-0.0,-290.80795,-0.0,87.13102,0.0,0.0,-41.944103,-84.72925,-3.6215518,-2.1980972,2.2936876,335.41495,-332.94675,85.48883,-153.0276,-317.93884,57.28774,-0.0,-2.9614344,31.982073,32.61683,-64.62095,81.731674,-158.34108,-241.8475,-71.61667,-281.48047
238,-0.0,-0.0,-0.0,-0.0,-0.0,0.0,0.0,-0.0,0.0,-0.0,-0.0,-0.0,-0.0,0.0,0.0,-0.0,-30.370087,-28.180202,-3.3889213,70.053734,-27.855326,44.52381,12.765914,-0.15705112,128.43726,-173.36412,-72.4338,-3.1161964,-38.59792,-9.178245,16.78656,69.91115,-7.534046,-66.941505,-3.969197,-9.801834,-91.85918
239,-0.0,-175.36841,-0.0,-0.0,91.7453,0.0,0.0,0.0,-36.520393,-0.0,-0.0,-0.0,-0.0,22.264278,0.0,0.0,106.41262,50.037716,-117.08054,5.7680264,-27.786085,-0.0,-148.05696,-4.787223,-112.21686,-722.77344,-44.523792,0.0,-0.0,0.0,-0.0,56.022858,-9.100247,-19.337187,-413.4271,-86.663216,-147.94525
240,-0.0,-0.0,-0.0,-0.0,140.66254,201.92953,0.0,-0.0,-0.0,-0.0,-0.0,-0.0,-0.0,-0.0,0.0,0.0,134.7367,-235.63013,-78.741875,9.040001,-30.996843,459.37387,-93.13693,2.5571618,29.13907,-889.72516,0.0,27.412762,-0.0,-37.193542,62.855396,132.72617,-27.62328,-0.0,-183.52309,-0.0,-119.81569
241,-0.0,-0.0,-0.0,-0.0,168.84576,0.0,59.65087,-0.0,0.0,-0.0,-0.0,-0.0,-0.0,90.60191,135.23045,-0.0,-3.5669227,23.128407,-3.3812594,0.0,-37.09095,829.3312,-505.0488,-9.454405,51.437237,-355.15128,47.058723,-28.91412,0.0,-0.0,-0.0,-179.60875,-169.48355,-425.82312,-211.69524,-81.80693,-661.7428
242,-0.0,-0.0,-0.0,-0.0,24.455303,0.0,115.13233,0.0,-0.0,-0.0,-0.0,-0.0,-0.0,-39.33267,126.541885,0.0,60.69554,20.92541,-16.438055,1.1709131,2.130579,55.3472,151.95627,-0.62158406,-3.8857205,-271.8681,46.88828,-51.77878,-34.797466,0.0,-0.0,25.35095,27.351646,19.414532,19.318287,-21.65779,-1.9025675
243,-0.0,-0.0,-0.0,-0.0,140.37534,0.0,191.74008,-0.0,-0.0,-0.0,-0.0,-0.0,-0.0,36.747112,171.55139,0.0,143.06055,-242.75131,-36.13744,28.0302,-28.256243,533.00854,-236.84775,-20.301659,30.730597,-808.9022,0.0,37.478683,-0.0,0.0,-0.0,50.02558,-58.76531,25.374268,-227.09454,-63.207405,-78.52829
244,-0.0,0.0,-0.0,-0.0,-0.0,0.0,0.0,-0.0,-0.0,-0.0,-0.0,-74.76976,-0.0,-15.945733,0.0,-0.0,1.9281763,-1.0945305,1.1485729,-39.824554,-34.09525,-60.071903,-64.72664,-2.1427646,-3.0094485,6.9978337,-110.50814,43.49627,-0.0,14.62715,-7.8901644,3.872707,-1.9673452,-74.9414,13.700968,-76.070656,-6.719365
245,-263.65656,-0.0,-0.0,-0.0,242.35365,0.0,0.0,-146.48087,0.0,-0.0,-0.0,-0.0,-0.0,74.309326,0.0,0.0,-64.57383,-84.47283,-48.10976,1.2278872,-18.710627,372.65305,-179.92441,82.30298,-183.66109,-752.01843,6.0708404,-21.244184,-0.0,5.2677155,43.476692,180.16452,-264.27438,132.96167,-346.60675,-28.627197,-645.53735
246,-0.0,-0.0,-0.0,-0.0,20.565437,0.0,105.51664,0.0,-0.0,-0.0,-0.0,-0.0,-0.0,-34.82757,120.61702,0.0,52.028095,28.829172,-32.607716,9.441089,-8.213939,83.02272,149.95818,0.029486267,-3.7889075,-216.09634,41.82785,-89.34504,-2.991117,-26.907236,28.682796,50.37086,25.439695,17.352814,19.72657,-11.918727,47.760044
247,-0.0,0.0,-0.0,-0.0,-0.0,0.0,0.0,-0.0,0.0,-0.0,-0.0,-357.48492,-0.0,74.83851,0.0,0.0,1.302435,-265.7589,-50.042717,-6.938751,-89.18088,590.0361,-479.51636,-16.620201,-96.74692,-312.84058,53.08572,-27.431843,-0.0,0.0,-0.0,108.58858,-97.69592,-56.357132,-315.55533,-0.0,-55.15765
248,0.0,-0.0,-0.0,-0.0,51.12961,0.0,147.40778,-0.0,-0.0,-0.0,-0.0,-0.0,-0.0,-11.119469,136.50006,0.0,-20.351622,-9.800969,-21.915075,-8.121807,-20.289167,338.85715,-70.7205,-10.793159,7.13099,-235.4228,3.2980604,-95.488365,-0.0,-27.830246,39.8769,36.171284,23.338348,-23.628862,-70.13142,-48.144688,-30.792326
249,-0.0,-0.0,-0.0,-0.0,58.52845,0.0,96.13487,-0.0,-0.0,-0.0,-0.0,-0.0,-0.0,-16.702585,142.31464,-0.0,33.890144,-27.49456,-2.8953016,12.784002,-75.327194,51.628994,7.9195895,-0.9193703,2.084347,-134.44096,-38.70667,-61.51923,-0.0,0.0,23.81407,79.20225,3.8654191,-0.0,5.2233763,-33.76333,6.835759
250,-0.0,-9.4523325,-0.0,-0.0,15.74729,-0.0,0.0,0.0,-0.0,0.0,-0.0,-0.0,-0.0,0.0,0.0,0.0,27.917952,10.331781,5.810127,-20.44333,-17.363104,27.916775,102.473526,-0.2816478,-15.224604,-177.25206,33.616936,-11.460192,-11.392313,-24.058626,14.692937,-12.420976,-65.42122,-13.44093,52.890976,39.27647,-11.736468
251,-0.0,0.0,-0.0,-0.0,177.01743,0.0,192.21065,-0.0,-0.0,-0.0,-0.0,-0.0,-0.0,-0.040189028,173.96935,0.0,15.52911,-357.9223,-65.216965,8.694766,-0.07156787,607.1432,330.77814,-31.387058,43.298706,-828.69836,18.77701,-125.55025,-206.62881,-20.361076,78.54478,-167.71803,-3.272389,39.68402,-86.27542,-15.966939,-674.6357
252,-0.0,-0.0,-0.0,-0.0,164.5274,0.0,175.87595,-0.0,-0.0,-0.0,-0.0,-0.0,-0.0,14.841773,177.53683,0.0,50.64404,-206.83745,-286.10483,-25.700989,0.7033831,833.97833,300.98737,-25.20731,44.437607,-1001.60205,-9.116765,-162.47856,-0.0,0.0,-0.0,-97.91485,-47.936287,69.591965,-311.9754,-0.0,-649.9483
253,-133.32224,-0.0,-0.0,-0.0,103.06303,0.0,0.0,-0.0,0.0,-0.0,-0.0,-0.0,-286.6041,-9.487221,0.0,0.0,111.77364,-212.71927,-212.18962,54.480556,-4.6583967,39.983032,12.327379,-12.406217,207.02939,-951.68835,13.182426,-261.10834,-0.0,-21.32427,45.38578,-118.06878,143.376,-0.0,-183.0745,-0.0,-482.2758
254,-152.9244,-0.0,-0.0,-0.0,123.93649,0.0,0.0,-0.0,0.0,-0.0,-0.0,-0.0,-0.0,0.0,0.0,0.0,74.10427,-217.49147,-170.91328,-18.838469,-26.900373,-0.0,0.0,55.23871,26.256691,-844.3951,21.065804,-231.13991,-0.0,-33.246162,37.631176,169.9939,-40.216656,-0.0,-345.03177,-0.0,-407.02542
255,-0.0,0.0,-0.0,-0.0,-0.0,0.0,0.0,-0.0,0.0,-0.0,-0.0,-0.0,-0.0,-0.0,0.0,-0.0,81.153305,124.20026,-4.658717,12.396421,-61.60695,217.00923,-271.4513,2.6649587,85.13782,-139.21399,-61.931618,-26.040575,65.84367,22.741386,-51.8021,16.087894,-41.160915,-293.1473,-25.670815,-0.0,-202.34532
256,-0.0,0.0,-0.0,-0.0,83.42409,0.0,97.81746,-0.0,0.0,-0.0,-0.0,-0.0,-0.0,1.0660553,163.88417,-0.0,133.75105,-51.581455,-9.631478,20.750475,15.033981,278.32968,-217.42476,-22.716291,9.893338,-257.09915,-241.55719,-60.701252,0.0,-5.5601254,36.216377,50.888065,-31.183079,-119.83669,30.819698,0.0,-352.73987
257,-0.0,-0.0,-0.0,-0.0,-0.0,0.0,0.0,-0.0,0.0,-0.0,-0.0,-349.2671,-0.0,85.92447,0.0,-0.0,-50.14452,-16.890924,-34.837437,2.6416981,2.1644573,821.6284,-455.81342,-14.200987,-31.938543,-323.19534,0.0,-16.842754,0.0,15.909409,56.055504,4.016491,4.8936467,-381.45618,-231.07576,-0.0,-447.50623
258,-0.0,0.0,-34.84756,-0.0,55.798115,0.0,0.0,-0.0,0.0,-0.0,-0.0,-0.0,-0.0,0.0,0.0,-0.0,62.54064,-93.157875,-9.132657,-67.82188,3.267396,224.90118,-609.23645,-41.436596,221.2857,-30.198471,-345.1624,-178.60521,0.0,35.746845,-51.796646,116.04575,-32.76777,-162.41145,93.4729,-1.8216377,-624.37933
259,-0.0,-31.017988,-0.0,-0.0,99.74417,0.0,0.0,-0.0,-19.039062,-0.0,-0.0,-0.0,-0.0,1.2976072,0.0,0.0,16.684767,-198.15762,-682.4649,-2.146656,-37.574272,360.62787,-62.71349,-19.11387,-128.2624,-965.61285,-15.153919,75.894714,-0.0,0.0,-0.0,93.706856,-13.453068,-0.0,-171.07974,0.0,-227.36407
260,-0.0,-0.0,-0.0,-0.0,20.91818,-0.0,105.88391,0.0,-0.0,-0.0,-0.0,-0.0,-0.0,-37.594246,124.299675,0.0,96.25232,2.3903704,-14.203557,18.732117,-36.576595,56.08547,108.27771,-1.1557721,-4.1931934,-218.91893,45.65764,-8.57687,-0.0,-29.91524,26.888363,16.070229,26.04289,-0.0,19.555332,-12.083033,1.9211924
261,-0.0,-0.0,-0.0,-0.0,84.25102,0.0,106.77227,-0.0,-0.0,-0.0,-0.0,-0.0,-0.0,-22.358149,151.18466,0.0,-1.0671346,-18.060762,0.89719075,-61.109818,-1.5208468,132.10649,231.02097,0.9283967,8.498489,78.574295,-302.3542,-33.805546,-33.041306,2.625361,-30.607948,-16.292233,-11.589106,-107.34065,3.588554,-0.0,30.27917
262,-0.0,0.0,-0.0,-0.0,-0.0,0.0,0.0,-0.0,0.0,-0.0,-0.0,-316.5878,-0.0,44.12297,0.0,-0.0,88.816635,17.689709,-15.773209,29.884607,-4.5227284,589.5691,-680.414,-28.722666,-27.616602,-175.80257,-24.211836,-1.9240556,0.0,0.0,-0.0,163.42993,-40.550755,-120.77392,-167.24509,-16.297422,-166.77953
263,-0.0,-0.0,-0.0,-0.0,21.606348,0.0,96.26651,0.0,-0.0,-0.0,-0.0,-0.0,-0.0,-34.973335,114.11191,0.0,39.932438,7.341554,-5.8065743,26.411222,-37.84133,80.86135,150.05139,-0.0,-3.4006195,-87.23914,-0.0,0.0,-0.0,-19.038288,27.381933,-13.786931,38.83151,30.535217,24.298006,-9.653111,25.363104
264,-0.0,-0.0,-0.0,-0.0,40.877712,0.0,99.53346,0.0,-0.0,-0.0,-0.0,-0.0,-0.0,-25.842869,126.18584,-0.0,17.08725,46.710896,-0.9022519,-2.3087168,-17.427801,46.409657,74.7021,-1.8838288,-0.9787732,-143.20831,-0.0,-30.62471,-0.0,0.0,-0.0,63.97578,33.504837,-0.0,12.456898,-12.645611,-5.6608577
265,-0.0,-0.0,-0.0,-0.0,239.19586,0.0,126.37871,-0.0,0.0,-0.0,-0.0,-0.0,-0.0,102.63794,166.39615,0.0,-19.278988,-263.40118,-22.640663,16.327295,-28.111778,576.43835,-644.06177,-26.683136,50.77787,-370.66946,22.375053,-29.074932,0.9570389,-11.595055,-0.0,197.2267,-60.750755,-279.9879,-295.84967,-133.59367,-255.39981
266,-0.0,0.0,-0.0,-0.0,123.45801,0.0,60.30927,-0.0,0.0,-0.0,-0.0,-0.0,-0.0,36.466053,99.95374,0.0,-20.334457,-244.8764,-18.14944,17.603258,-57.740692,172.67564,-163.00089,15.095166,28.636135,-574.50934,-0.0,-397.72058,-0.0,-270.7237,-397.1986,-64.925835,-57.179367,-0.0,-200.2218,-0.0,-396.32822
267,-0.0,0.0,-0.0,-0.0,-0.0,0.0,0.0,-0.0,0.0,-0.0,-0.0,-319.51404,-0.0,58.036873,0.0,0.0,-4.768753,-155.50308,-27.260569,-3.2023256,4.972136,468.26068,-338.29028,-26.419003,-184.01993,-335.00507,0.0,-40.860687,-0.0,8.583576,34.518288,-31.843027,120.36278,-47.29772,-105.088264,-63.431534,-357.67526
268,-0.0,0.0,-0.0,-0.0,78.71322,0.0,61.540707,-0.0,0.0,-0.0,-0.0,-0.0,-0.0,11.14792,99.92922,-0.0,73.8262,167.06825,-0.0,1.2963654,-0.64031404,335.81458,-220.02017,13.3050165,12.677591,30.895092,-369.5874,-2.5571542,0.0,-0.0,-0.0,72.59785,76.20505,-438.6769,-57.808437,-0.0,-138.59613
269,-0.0,-0.0,-0.0,-0.0,-0.0,0.0,0.0,-0.0,-0.0,-0.0,-0.0,-0.0,-0.0,-0.0,0.0,0.0,74.69477,-66.68721,-89.26001,165.69165,-80.18152,-394.54074,283.1341,70.438324,324.74747,-410.14502,8.739294,-17.020731,-0.0,-31.847792,40.886845,164.10883,48.42159,-0.0,-239.91763,-25.649479,7.758145
270,-0.0,0.0,-0.0,-82.93767,-31.513226,0.0,0.0,-0.0,0.0,-0.0,-0.0,-0.0,-0.0,0.0,0.0,-0.0,22.453175,-110.14779,-104.99133,-21.954416,-2.1262493,273.82693,-639.1494,-45.10982,-0.6732862,-156.08865,66.08568,-2.8061008,0.0,-25.99862,24.030941,123.596504,-5.8728595,63.08877,0.0,0.0,-528.6351
271,-0.0,-0.0,-0.0,-0.0,90.664116,0.0,101.28183,-0.0,0.0,-0.0,-0.0,-0.0,-0.0,29.382765,150.89496,-0.0,2.2312968,78.117165,-19.442762,-16.62756,-32.15519,226.7004,-114.54178,49.20434,8.8943815,-99.57334,55.38456,4.6936016,37.136456,-0.74119484,32.694294,-94.87843,-22.856588,-494.5804,0.0,-18.14526,-267.1965
272,-0.0,0.0,-0.0,-0.0,88.40778,0.0,91.29478,-0.0,0.0,-0.0,-0.0,-0.0,-0.0,-15.911701,158.83499,-0.0,23.855852,-166.30995,-0.0,2.9960077,-2.4162426,46.462708,-269.08807,-33.989647,13.104971,-124.2601,-506.80478,-194.08774,0.0,2.719147,-164.4486,248.9224,-46.633057,-0.0,97.56305,10.231302,-312.0515
273,-0.0,0.0,-0.0,-0.0,112.25287,0.0,115.71738,-0.0,-0.0,-0.0,-0.0,-0.0,-0.0,0.0,0.0,0.0,109.77699,39.514256,-29.820475,4.6626444,-17.861057,450.33,232.91612,-5.6073675,43.34461,-1147.534,-4.50833,11.509856,-400.33456,-47.05388,40.742603,-85.16414,-7.6275377,-0.0,-109.21386,-1.2761804,-597.8349
274,-0.0,0.0,-0.0,-0.0,140.02034,0.0,124.95935,-0.0,-0.0,-0.0,-0.0,-0.0,-0.0,-15.211897,113.78058,0.0,-16.635508,-458.5687,-16.349657,-3.03751,-2.4187026,192.45886,160.7116,4.1718125,32.741806,-714.03394,-86.94813,-95.4699,-520.9187,-33.68043,39.459915,-28.597246,-86.86386,-67.82219,-54.21109,-33.03693,-520.8127
275,0.0,-0.0,-0.0,-0.0,-0.0,0.0,0.0,-0.0,-0.0,-0.0,-0.0,-0.0,-0.0,-0.0,0.0,0.0,26.10639,3.34146,-55.408894,-10.166392,-15.284817,595.8894,-131.16998,-0.0,31.237474,-512.4567,-34.46196,-6.0139723,-0.0,-21.084867,61.569515,106.312874,7.0839577,14.414037,-220.00706,-0.0,64.19821
276,-0.0,-0.0,-0.0,-0.0,257.59378,0.0,124.57033,-0.0,0.0,-0.0,-0.0,-0.0,-0.0,82.287155,212.39082,0.0,-3.62488,-215.77234,-85.657074,3.4788365,-96.15345,508.07095,-167.63277,-16.512163,57.359646,-524.31085,-35.35678,-44.427006,-1.6701779,-0.0,-0.0,-194.59471,-250.36874,144.41414,0.0,-0.0,-388.92667
277,-0.0,-0.0,-0.0,-0.0,169.7167,0.0,196.30757,-0.0,-0.0,-0.0,-0.0,-0.0,-0.0,16.375217,165.28506,0.0,-5.6918445,-272.55646,-77.58292,-0.5806466,1.8824744,593.6425,152.76558,-21.672981,37.729946,-864.3003,-5.740608,-1.8112936,-143.25246,0.0,-0.0,102.675064,-42.143826,22.21675,-276.80725,-0.0,-311.18307
278,-0.0,0.0,-0.0,-0.0,100.10102,0.0,106.43072,-0.0,0.0,-0.0,-0.0,-0.0,-0.0,32.703148,139.29472,-0.0,91.21758,-45.95037,-21.668812,5.6931596,-35.07189,5.6973305,-346.60535,157.47218,10.15264,-532.0487,-180.12337,2.3719518,-35.71206,5.219063,-28.130835,147.20395,-115.57272,-287.281,-42.466606,-0.0,-384.30527
279,-0.0,0.0,38.576164,-0.0,3.1230636,0.0,0.0,-0.0,0.0,-0.0,-0.0,-0.0,-0.0,0.0,0.0,-0.0,34.11599,82.42163,-9.838106,-14.195335,4.0099816,134.72098,-398.70642,-39.111996,11.401474,-82.46125,-269.83493,-16.83578,3.6889427,20.188011,-33.058517,171.34218,-28.367859,-225.85936,-42.47608,1.5637379,-382.56516
280,-0.0,-0.0,-0.0,-0.0,-0.0,0.0,0.0,-0.0,-0.0,-0.0,-0.0,-0.0,-0.0,-0.0,0.0,0.0,-32.63118,0.0,-47.775352,-33.621117,-6.7428904,432.97778,-193.07118,2.6141229,36.383347,-217.3593,-32.820606,114.04844,-0.0,-2.6732233,47.129986,44.58213,-4.1978903,50.44189,-91.69073,-0.0,-195.59012
281,-0.0,-33.934742,-0.0,-0.0,94.96511,0.0,0.0,-0.0,-0.0,-0.0,-0.0,-0.0,-0.0,0.0,0.0,0.0,197.02715,-266.8729,-18.362679,11.585042,-19.159136,193.54271,-222.92262,-9.517315,152.23659,-667.36774,-123.143684,-26.335114,-0.0,-47.37616,30.690342,26.537725,39.786484,27.636425,78.09132,-0.0,-183.08562
282,-0.0,-0.0,-0.0,-0.0,-0.0,0.0,0.0,-0.0,0.0,-0.0,0.0,-0.0,-0.0,-0.0,0.0,-0.0,-22.79468,-100.05711,-62.51702,-5.5569158,-155.91232,994.55695,-648.6149,49.98853,135.6835,-290.01978,-67.39124,-2.1855204,55.971745,-43.914024,-47.737915,214.69588,-72.776634,-348.24078,-363.2023,-197.86667,-250.90501
283,-0.0,-0.0,-0.0,-0.0,138.0424,0.0,166.9548,-0.0,-0.0,-0.0,-0.0,-0.0,-0.0,16.477308,156.81277,0.0,-14.43256,-450.39185,-230.0929,-5.234614,-0.47647452,632.30585,-250.6173,-35.56626,40.634293,-854.4506,-13.173848,-12.540523,-0.0,0.0,-0.0,174.42273,-53.05724,15.860999,-230.17871,-0.0,-575.6249
284,-0.0,-0.0,-0.0,-0.0,-0.0,0.0,0.0,-0.0,-0.0,-0.0,-0.0,-376.4058,-0.0,82.17475,0.0,0.0,-33.894173,-88.20312,-97.38775,8.273555,-42.129047,453.95645,-233.56908,-5.413473,-155.30902,-369.70074,-37.734875,34.474106,-9.690124,-9.46571,67.154976,162.66847,42.703564,-48.90303,-114.15153,-0.0,-212.94734
285,-268.5558,0.0,-0.0,-0.0,210.14635,0.0,0.0,-147.93732,0.0,-0.0,-0.0,-0.0,-0.0,85.214554,0.0,0.0,14.242236,-219.43283,-24.265642,-14.476287,-95.231476,444.79596,-480.97845,-15.483315,-218.15166,-358.89215,0.0,4.773668,0.0,45.11202,-68.180855,-62.936115,-271.37552,-63.775898,-231.93576,-0.0,-177.97101
286,-0.0,-0.0,-0.0,-0.0,25.014534,0.0,121.58058,0.0,-0.0,-0.0,-0.0,-0.0,-0.0,-36.37361,135.69121,0.0,28.517921,17.855225,-10.602171,-28.539177,-19.63551,117.41434,82.56537,-1.8068188,-2.6584797,-194.0396,-42.61541,-51.115234,-0.0,0.0,-0.0,56.89986,-91.23107,-16.659082,1.9908113,-0.0,26.57754
287,-0.0,0.0,0.0,-0.0,0.0,-0.0,0.0,-0.0,0.0,-0.0,-0.0,-0.0,-225.7156,-35.661736,0.0,-0.0,132.63124,14.533459,-29.961924,-4.277638,-3.4132125,207.43788,-351.44424,-33.75914,-6.018845,-274.5773,-0.0,-6.5383787,0.0,15.851712,-36.8959,-22.668406,-37.26409,-76.913574,-84.19478,0.0,-238.89273
288,-137.01051,-0.0,-0.0,-0.0,134.92819,0.0,0.0,-0.0,0.0,-0.0,-0.0,-0.0,-371.03165,13.232183,0.0,0.0,164.27283,-217.77573,-240.48654,6.059277,4.0326056,409.27145,-212.64494,-11.302768,213.13086,-653.8677,8.568748,-51.1611,-23.525635,-35.81074,64.22285,123.13533,44.399242,-0.0,-114.516365,-0.0,-450.75143
289,-0.0,-0.0,-0.0,-0.0,28.770414,0.0,111.82237,0.0,-0.0,-0.0,-0.0,-0.0,-0.0,-39.85276,131.71065,0.0,84.877815,-52.54817,-3.2113836,22.248152,-29.263842,97.09483,159.36765,-0.0,-1.4892144,-263.23865,-0.0,20.86283,-23.003424,-27.397488,30.948648,-23.628342,1.5767112,33.99713,5.9682016,-0.0,-2.3084168
290,-0.0,0.0,-0.0,-0.0,-0.0,0.0,0.0,-0.0,0.0,-0.0,-0.0,-316.04666,-0.0,26.640856,0.0,-0.0,99.34483,-40.873108,-46.186802,-6.0988626,-43.878357,263.90176,-542.7672,12.43472,-78.105965,-88.98285,-0.0,-46.384144,-0.0,0.0,-0.0,231.06549,99.78284,-245.40729,250.15988,-0.0,-401.70996
291,-0.0,-0.0,-0.0,-0.0,85.78891,0.0,107.99302,-0.0,-0.0,-0.0,-0.0,-0.0,-0.0,24.212677,128.3988,0.0,9.321991,-1.5048496,-29.10672,3.4561431,-45.732952,258.73578,-25.483492,1.9773006,13.1199045,-74.825386,1.0299482,25.11223,0.0,-11.876588,35.37366,-79.297264,-11.291782,-32.58263,-34.483173,-0.0,-85.74416
292,-0.0,0.0,-0.0,-0.0,113.48288,0.0,163.57613,-0.0,-0.0,-0.0,-0.0,-0.0,-0.0,5.2804995,118.254105,0.0,6.669825,-136.03317,-42.158333,3.0816178,5.0743117,349.49213,201.79645,-28.308702,20.937773,-798.82715,-0.0,1.7168349,-164.07408,-16.923862,71.880035,-225.26753,87.60831,-64.13187,-115.84814,-0.0,-579.9987
293,-0.0,-0.0,-0.0,-0.0,136.08612,0.0,199.89397,-0.0,-0.0,-0.0,-0.0,-0.0,-0.0,36.12885,168.03418,0.0,195.58803,-358.77844,-181.1716,12.834489,-15.507416,656.7724,-464.62863,-37.175014,33.7061,-788.7391,1.4267136,-19.93064,-0.0,31.256575,-74.747375,194.9976,76.32368,20.961569,-140.61758,-52.58358,-324.8754
294,-0.0,0.0,0.0,-81.80976,25.817717,-0.0,0.0,-82.32951,0.0,-0.0,-0.0,-0.0,-0.0,-43.67194,0.0,-0.0,327.61472,-62.489925,-38.61864,2.0732455,9.461315,16.220299,-244.06743,88.066666,28.258883,-344.81546,-174.35298,-53.44815,-0.0,-27.033766,20.65086,-16.463745,-0.9753653,-34.62681,-50.320522,0.0,-434.477
295,-0.0,0.0,-0.0,-0.0,46.556366,0.0,99.18091,-0.0,-0.0,-0.0,-0.0,-0.0,-0.0,-33.30352,102.95017,0.0,122.77401,-56.517086,-49.331062,4.520965,6.5539618,233.36041,28.897184,55.22535,2.3931153,-385.8637,78.43169,-48.289707,-0.0,0.0,41.732414,-83.032684,9.446521,36.97183,0.0,-0.0,-427.5806
296,-0.0,0.0,0.0,-0.0,0.0,0.0,0.0,-0.0,0.0,-0.0,-0.0,-0.0,-0.0,0.0,0.0,-0.0,214.70561,-110.42905,-7.8482943,16.550827,-0.42447212,135.34583,-426.65714,-8.063233,15.398943,-209.526,-0.0,4.959272,-0.0,0.0,-0.0,121.03357,11.795833,-0.0,-86.694885,-26.022911,-376.5751
297,-0.0,0.0,-0.0,-146.71187,173.18936,0.0,0.0,-0.0,0.0,-0.0,-137.6896,-0.0,-0.0,54.650616,0.0,-0.0,54.113667,-99.97699,-16.52715,36.575184,-87.82604,353.71805,-291.89978,24.047049,-185.20726,-242.57452,-143.57506,-26.547758,-45.662407,34.852737,-25.45942,-6.9844804,-108.81441,-412.18787,66.486885,-0.0,-418.88614
298,-0.0,-0.0,-0.0,-0.0,175.87173,0.0,77.351204,-0.0,0.0,-0.0,-0.0,-0.0,-0.0,76.46166,155.36511,0.0,-21.425508,-129.98018,-12.344914,-10.269661,-21.334978,690.8715,-385.31772,-12.070994,47.032467,-405.89368,52.080235,-1.5099772,0.0,0.0,-0.0,-124.403465,-59.349785,-267.3246,-282.46118,-0.0,-249.98276
299,-0.0,-0.0,-0.0,-0.0,-0.0,0.0,0.0,-0.0,-0.0,-0.0,-0.0,-365.1694,-0.0,85.01787,0.0,0.0,-92.51255,-10.588374,-23.88163,-3.117298,-28.910646,794.339,-276.0735,7.5891647,-154.96745,-482.52875,-80.93986,-48.94335,-0.0,-2.771077,64.144516,-2.9831326,-34.789783,87.51899,-288.82672,-66.16079,36.298164
300,-0.0,-0.0,-0.0,-0.0,-0.0,0.0,0.0,0.0,-0.0,-0.0,-0.0,-0.0,-0.0,0.0,0.0,0.0,62.36879,-13.698192,-9.051982,-14.440531,-14.936651,54.959145,102.32067,0.64170724,-52.51855,-74.7495,-0.0,-46.648315,-0.0,0.0,-0.0,-30.645102,28.414093,33.305424,9.659725,-0.0,53.79098
301,-0.0,-0.0,-0.0,-0.0,24.355501,0.0,105.19198,0.0,-0.0,-0.0,-0.0,-0.0,-0.0,-31.442966,115.17076,0.0,48.54073,54.66516,-11.026387,-3.058069,-15.160375,86.28015,137.36935,-0.5405204,-2.9059672,-140.33105,38.017242,-79.86148,-0.0,-21.763142,28.625368,40.021744,21.33516,-16.231884,7.7548084,-0.0,33.128757
302,-0.0,-0.0,-0.0,-0.0,150.21712,0.0,208.11967,-0.0,-0.0,-0.0,-0.0,-0.0,-0.0,23.109188,176.5431,0.0,157.70566,-383.81497,-71.727745,-7.167604,-23.652134,410.66394,-337.6562,-19.396664,28.409973,-908.882,0.0,-121.83168,-51.867855,0.0,-0.0,151.77557,-14.152045,-8.986927,-196.25594,-66.65387,34.21414
303,-0.0,-0.0,-0.0,-0.0,48.37395,0.0,98.15954,-0.0,-0.0,-0.0,-0.0,-0.0,-0.0,-1.0003033,135.00018,-0.0,8.237338,52.866413,-5.5281906,-32.065105,-26.349304,74.88376,41.559597,-3.7335358,2.5651264,-112.1629,-0.0,-22.139723,0.0,-17.090805,21.894598,93.656296,-4.55267,-194.79395,-3.2472713,-0.0,-142.86243
304,-0.0,0.0,-0.0,-0.0,-0.0,0.0,0.0,-0.0,0.0,-0.0,-0.0,-0.0,-0.0,-0.0,0.0,-0.0,61.281242,-46.2502,-3.5758126,-23.402843,-0.0,164.67334,-98.843475,35.61867,134.77379,0.0,-0.0,-17.109098,46.585575,-12.155639,19.911766,-22.656132,-89.15208,-252.11925,-36.355843,-12.306552,-469.8773
305,-0.0,-0.0,-0.0,-0.0,47.59645,0.0,85.74182,-0.0,-0.0,-0.0,-0.0,-0.0,-0.0,-7.0864573,133.24391,-0.0,30.178028,-26.293139,-11.647612,-48.7463,-2.7536066,-19.481148,-79.89917,3.3511217,3.1758952,-33.77826,-94.173256,20.697758,-0.0,0.0,-0.0,98.786674,-8.085752,-109.52522,0.0,-10.019538,-106.562164
306,-0.0,-149.82977,-0.0,-0.0,74.21718,0.0,0.0,0.0,-0.0,-0.0,-0.0,-0.0,-0.0,-0.0,0.0,0.0,-14.200374,21.565891,-109.70608,3.8736606,-31.392696,430.39352,-275.86234,-2.9017775,190.5227,-651.7132,-50.245003,14.196042,0.0,16.476595,-44.37892,-66.36911,1.3364266,12.571876,-118.26748,-28.886,-217.76671
307,-0.0,0.0,-0.0,-0.0,240.66957,0.0,85.949356,-0.0,0.0,-0.0,-0.0,-0.0,-0.0,53.80938,161.58194,0.0,14.046295,-407.12424,-22.568684,42.19193,-19.156788,162.31253,-295.95126,-28.113262,54.632465,-559.8272,-21.849388,-45.545532,-0.0,0.0,-0.0,-162.76935,-183.33665,-215.74178,-91.17677,-0.0,-484.92126
308,-0.0,-0.0,-0.0,-0.0,-0.0,0.0,0.0,-0.0,0.0,-0.0,-0.0,-341.93228,-0.0,75.66283,0.0,0.0,-4.555163,-43.13683,-10.247703,7.0980706,2.2723782,554.02075,-546.0565,33.824516,-35.26984,-400.17444,0.0,-0.0,0.0,-0.0,-0.0,76.997925,-98.42733,-52.669968,-379.8081,-0.0,-326.79816
309,-0.0,0.0,-0.0,-0.0,73.37106,43.482605,0.0,-0.0,-0.0,-0.0,-0.0,-0.0,-126.88783,4.5577316,0.0,-0.0,47.13775,172.864,77.971825,7.042766,-5.4627433,121.70438,10.830608,-9.140078,6.3878493,-36.371674,21.37038,0.0,-0.0,-10.072314,20.097015,-57.74085,44.713688,-271.1722,3.5072274,-0.0,-66.26372
310,-0.0,0.0,-0.0,-85.69304,100.16694,0.0,0.0,-0.0,0.0,-0.0,-250.17595,-0.0,-0.0,-36.819504,0.0,0.0,-22.62938,-176.2237,-35.919125,-37.75928,-11.749416,197.40364,15.419193,-24.160042,-106.39699,-380.73245,-192.95154,-122.65399,-17.457895,0.0,-0.0,75.68431,27.026081,-65.51312,0.0,0.0,-400.44797
311,-0.0,-0.0,-0.0,-0.0,96.3741,0.0,166.5133,-0.0,-0.0,-0.0,-0.0,-0.0,-0.0,16.532877,140.48476,0.0,85.049835,-80.71294,-109.10741,14.037937,-3.6193717,584.1607,-243.39224,-0.0,23.969763,-304.23,-22.375967,25.081518,0.0,25.105562,-59.23174,-63.262245,21.744356,-17.132486,-193.47917,-43.32151,-117.36693
312,-0.0,-0.0,-0.0,-0.0,33.674698,0.0,115.980644,0.0,-0.0,-0.0,-0.0,-0.0,-0.0,-37.99453,132.1306,0.0,11.99889,6.1743765,-7.4414186,-34.89908,-15.1414995,127.27166,218.37994,-4.878713,-0.561174,-270.72797,-38.13875,-47.43971,-54.820198,-20.222618,32.03278,20.283926,53.522354,-53.759605,17.369972,-7.573536,-31.686773
313,-0.0,-0.0,-0.0,-0.0,114.099106,0.0,181.47928,-0.0,-0.0,-0.0,-0.0,-0.0,-0.0,22.915636,161.98814,0.0,12.247451,-132.22887,-220.30229,3.4863057,-0.83683,795.0718,-178.47011,-30.571304,35.634556,-603.558,-22.849848,-4.1665154,-0.0,0.0,-0.0,148.82866,-31.520887,-0.0,-341.24677,-0.0,-562.3059
314,-193.09254,0.0,-0.0,-0.0,94.70081,0.0,0.0,-0.0,0.0,-0.0,-0.0,-0.0,-0.0,0.0,0.0,-0.0,31.95773,-150.25514,-5.5563297,-22.566828,5.6376214,-41.652817,-244.76402,4.521676,227.2471,-172.42241,-242.45981,-127.354294,-0.0,-33.49547,-77.89335,18.205437,-79.29223,-377.23303,-40.684895,-0.0,-480.3681
315,-0.0,0.0,-0.0,-0.0,-0.0,0.0,0.0,-0.0,-0.0,-0.0,-0.0,-0.0,-0.0,0.0,0.0,-0.0,46.266975,25.149748,-1.9412017,34.72013,-2.7510421,73.25522,-305.0013,-5.5154386,1.4954251,-92.27733,-0.0,13.849589,0.0,28.991251,-0.0,85.60631,-1.1609927,-75.975685,7.712825,-0.0,-132.65892
316,-277.12592,-0.0,-0.0,-0.0,231.21007,0.0,0.0,-0.0,0.0,-0.0,-0.0,-385.65253,-0.0,54.51439,0.0,0.0,5.341986,-317.1497,-27.405298,55.496418,11.358484,69.57526,-44.120247,-16.574696,-148.92723,-193.27786,-28.567738,-324.6542,-0.0,-2.2123082,33.66061,185.38896,97.5669,148.18134,-244.73022,-0.0,-718.32623
317,0.0,-151.02429,-0.0,-0.0,96.47616,0.0,0.0,0.0,-0.0,-122.790306,-0.0,-0.0,-0.0,18.593273,0.0,0.0,75.53408,28.578918,-42.74333,-3.149081,14.185644,153.25134,-171.27963,-0.0,-94.95123,-394.5559,60.358776,12.33035,-49.655792,0.0,-0.0,-24.279198,0.0,12.497449,-118.085144,-265.7242,-123.45406
318,-0.0,0.0,0.0,-88.638535,-27.563763,0.0,0.0,-0.0,0.0,-0.0,-0.0,-0.0,-0.0,0.0,0.0,-0.0,22.472116,26.995455,-4.163977,0.48085007,1.3191727,168.8428,-499.30386,-29.730083,-5.004896,-385.7085,-157.07018,-80.24913,-0.0,101.92215,-130.97455,-167.91425,-21.141836,37.078552,0.0,1.264866,-442.33942
319,-0.0,0.0,-0.0,-109.35995,168.67494,0.0,0.0,-0.0,0.0,-0.0,-0.0,-0.0,-0.0,-0.0,0.0,-0.0,41.48925,-281.08206,-29.519007,-21.93662,-116.11124,238.57855,-354.7369,-16.311405,355.12552,-191.41933,-39.435493,-78.680405,-0.0,-28.524134,15.216569,-22.852879,-142.2497,-112.91702,-59.661312,-34.909424,-100.83448
320,-0.0,-0.0,-0.0,-0.0,120.32677,111.12054,0.0,-0.0,-0.0,-0.0,-0.0,-0.0,-0.0,-0.0,0.0,0.0,-44.3551,-30.035788,21.39299,1.7074183,-17.390219,263.2313,-8.369114,3.0043683,17.818027,-217.06479,-1.936873,71.79367,-0.0,-8.761303,29.490223,-165.65431,10.991413,-129.48944,-33.754364,-97.63912,-51.214203
321,-0.0,-0.0,-0.0,-0.0,70.03409,0.0,117.33711,-0.0,0.0,-0.0,-0.0,-0.0,-0.0,31.411179,105.43181,-0.0,99.99029,-78.96172,-0.0,27.975334,-0.0,540.9446,-392.23367,3.4876099,23.150755,-821.6753,-0.0,25.39827,0.0,20.291372,-134.71094,-240.32988,45.534874,-168.49734,-291.8481,-0.0,-461.7789
322,-0.0,-0.0,-0.0,-88.77785,89.71472,0.0,0.0,-0.0,-0.0,-0.0,-0.0,-152.68002,-0.0,15.878809,0.0,0.0,-6.1053133,4.061675,-2.7689855,21.577837,-21.406143,181.6778,-179.96167,-0.7947802,-24.136671,-178.98802,53.31232,-4.4513717,-0.0,0.0,-0.0,-62.4137,-6.243436,-0.0,-72.627945,-28.805132,9.115285
323,-135.50778,-0.0,-0.0,-0.0,125.56271,0.0,0.0,-0.0,-0.0,-0.0,-0.0,-0.0,-0.0,-0.0,0.0,0.0,-15.829848,-276.89557,-20.031956,-1.3773717,-39.296093,355.48776,-290.57574,-21.65894,147.03584,-847.5932,0.0,-47.814415,-0.0,54.615097,-71.60463,85.301704,-74.275314,24.13812,-341.73718,-65.35534,-70.75612
324,-0.0,-0.0,-0.0,-0.0,37.740017,0.0,108.34555,-0.0,-0.0,-0.0,-0.0,-0.0,-0.0,-35.16325,133.43265,0.0,61.70888,3.4426548,8.492237,-62.0104,-43.2401,85.24701,168.41205,-0.39352205,-2.5862284,-305.15668,43.693638,-104.90484,-0.0,-25.431677,28.372807,-39.64162,25.944946,-0.0,31.435127,-21.995293,-8.132807
325,-0.0,0.0,0.0,-134.09398,54.61328,0.0,0.0,-0.0,0.0,-0.0,-0.0,-0.0,-0.0,-0.0,0.0,-0.0,149.51501,24.01706,-11.386072,1.6774737,-17.755585,117.595825,-648.318,14.968732,193.99777,-120.51709,-40.91394,6.833143,0.0,0.0,-0.0,116.46106,-67.93175,-386.6043,-108.2345,-0.0,-421.89136
326,-0.0,0.0,-0.0,-0.0,-0.0,0.0,0.0,-0.0,0.0,-0.0,-0.0,-0.0,-0.0,-0.0,0.0,-0.0,98.69083,3.2695737,-4.967701,-7.5857577,-12.318679,259.028,-553.1061,12.954847,154.72621,-172.21007,-167.50171,-28.030819,0.0,7.4579096,-19.412663,178.00484,-35.42507,-295.34857,0.0,-0.0,-310.108
327,-0.0,0.0,-0.0,-119.0645,5.854265,0.0,0.0,-0.0,0.0,-0.0,-133.03351,-0.0,-0.0,-1.4114532,0.0,-0.0,97.224464,-33.64061,4.441705,-13.062176,-13.618237,288.91977,-772.4084,-42.35049,-33.359734,-14.161182,-0.0,-8.683196,0.0,60.87949,-32.34723,-124.95993,42.678276,-55.427612,-19.355022,7.600716,-160.87575
328,-0.0,-0.0,-0.0,-0.0,20.206804,-0.0,111.897285,0.0,-0.0,-0.0,-0.0,-0.0,-0.0,-38.656975,132.62653,0.0,22.688213,-64.195694,-18.288452,-87.79233,-22.645061,35.68803,38.05693,2.2355618,-4.532986,-177.42654,48.104527,-56.21587,-0.0,-32.943733,25.553865,67.7641,29.043276,-15.498583,17.307735,-0.0,30.001068
329,0.0,-0.0,-0.0,-0.0,91.45491,0.0,156.78485,-0.0,-0.0,-0.0,-0.0,-0.0,-0.0,17.729643,133.57098,0.0,-13.977916,-69.52476,-37.757435,-2.7652705,-6.494664,531.34753,-115.83645,-10.159863,17.83575,-352.97726,-37.41481,25.578615,-0.0,-17.688248,57.854973,3.742489,5.617261,9.592311,-201.48027,-42.460415,-71.29413
330,-0.0,0.0,0.0,-0.0,76.108894,0.0,38.547104,-0.0,0.0,-0.0,-0.0,-0.0,-0.0,5.3827953,104.43407,-0.0,124.99129,-120.73955,-6.432954,3.0719693,-34.77498,214.40602,-574.8564,-30.689615,13.615636,-52.167255,-207.36931,-34.089584,0.0,7.0763607,-214.79541,-73.04869,-31.105812,-473.42062,36.967117,-11.697816,-398.81256
331,-0.0,0.0,-0.0,-0.0,-0.0,0.0,0.0,-0.0,0.0,-0.0,-0.0,-0.0,-0.0,-0.0,0.0,0.0,21.77797,-262.36752,-7.372654,-2.6424189,-24.301807,330.62955,-478.9405,-23.150877,227.80647,-175.59204,-6.2108865,-137.39119,-0.0,-26.237484,17.736286,103.035835,-156.35223,-439.05276,0.0,-48.160625,-489.88034
332,-165.94585,-0.0,-0.0,-0.0,123.00103,0.0,0.0,-0.0,0.0,-0.0,-0.0,-0.0,-0.0,0.0,0.0,0.0,20.511786,-222.7346,-150.54619,10.096168,-12.457605,163.88712,-12.16761,-0.0,210.28767,-856.3254,21.076134,-388.68692,-61.238506,0.0,-0.0,-240.64244,27.937954,-0.0,219.54485,-6.5172453,-599.67426
333,-0.0,0.0,-0.0,-0.0,84.825935,0.0,73.48715,-0.0,0.0,-0.0,-0.0,-0.0,-0.0,-6.0683293,176.59181,-0.0,165.31432,-164.22989,-6.742323,7.3050737,-7.0237985,246.34589,-187.70708,109.66424,14.366281,-82.64653,-354.84927,-109.710335,0.0,-11.89332,27.001099,-73.801544,-50.06429,-60.400017,0.0,-0.21154389,-360.25906
334,-0.0,-0.0,-0.0,-0.0,170.62778,0.0,133.41934,-0.0,0.0,-0.0,-0.0,-0.0,-0.0,66.90533,155.82031,0.0,16.863949,-111.25914,-12.095381,16.588015,-30.579922,409.92407,-83.455086,-5.6569715,32.251564,-216.1551,-19.346506,6.651562,-49.720127,-6.4352365,35.90061,190.96577,-71.98665,-242.72144,-183.07289,-38.257236,-249.0569
